{"learner":{"attributes":{"best_iteration":"99","best_ntree_limit":"100","scikit_learn":"{\"n_estimators\": 100, \"objective\": \"reg:squarederror\", \"max_depth\": null, \"max_leaves\": null, \"max_bin\": null, \"grow_policy\": null, \"learning_rate\": null, \"verbosity\": null, \"booster\": null, \"tree_method\": null, \"gamma\": null, \"min_child_weight\": null, \"max_delta_step\": null, \"subsample\": null, \"sampling_method\": null, \"colsample_bytree\": null, \"colsample_bylevel\": null, \"colsample_bynode\": null, \"reg_alpha\": null, \"reg_lambda\": null, \"scale_pos_weight\": null, \"base_score\": null, \"missing\": NaN, \"num_parallel_tree\": null, \"random_state\": null, \"n_jobs\": null, \"monotone_constraints\": null, \"interaction_constraints\": null, \"importance_type\": null, \"gpu_id\": null, \"validate_parameters\": null, \"predictor\": null, \"enable_categorical\": false, \"feature_types\": null, \"max_cat_to_onehot\": null, \"max_cat_threshold\": null, \"eval_metric\": null, \"early_stopping_rounds\": null, \"callbacks\": null, \"_estimator_type\": \"regressor\"}"},"feature_names":["carat","cut","color","clarity","depth","table","x","y","z"],"feature_types":["float","float","int","int","float","float","float","float","float"],"gradient_booster":{"model":{"gbtree_model_param":{"num_parallel_tree":"1","num_trees":"100","size_leaf_vector":"0"},"tree_info":[0,0,0,0,0,0,0,0,0,0,0,0,0,0,0,0,0,0,0,0,0,0,0,0,0,0,0,0,0,0,0,0,0,0,0,0,0,0,0,0,0,0,0,0,0,0,0,0,0,0,0,0,0,0,0,0,0,0,0,0,0,0,0,0,0,0,0,0,0,0,0,0,0,0,0,0,0,0,0,0,0,0,0,0,0,0,0,0,0,0,0,0,0,0,0,0,0,0,0,0],"trees":[{"base_weights":[3.5648777E3,1.6250281E3,7.5083174E3,1.0512883E3,3.0844175E3,6.185608E3,1.1298337E4,7.813344E2,1.677845E3,2.7311975E3,3.9587744E3,5.4334214E3,8.512663E3,1.0123419E4,1.2574252E4,6.954905E2,9.4753937E2,1.548449E3,2.1695955E3,2.4513408E3,2.9900398E3,3.451449E3,4.1866387E3,4.988977E3,6.592711E3,6.2647114E3,9.230613E3,9.444436E3,1.3734589E4,1.0904613E4,1.4725623E4,6.524042E2,8.409116E2,8.654071E2,1.1322778E3,1.3399563E3,1.7045714E3,1.9191063E3,2.505499E3,2.3077998E3,2.7518723E3,2.5337004E3,3.2065293E3,2.1413804E3,3.5388516E3,3.371681E3,4.3562524E3,4.652895E3,5.9901523E3,5.6776045E3,7.1105815E3,5.515811E3,6.975382E3,8.413387E3,1.0692325E4,8.290931E3,1.0452074E4,5.84315E3,1.39698955E4,1.0114215E4,1.3683299E4,1.4226908E4,1.617015E4,5.464807E2,6.857657E2,5.93427E2,8.929866E2,7.8087115E2,9.3162756E2,9.47557E2,1.1888341E3,1.1712924E3,1.4137308E3,1.3738306E3,1.7666178E3,1.5191818E3,1.9806642E3,2.385859E3,2.9184778E3,2.1760771E3,2.5246992E3,2.4702344E3,2.9301316E3,2.0370979E3,2.6211597E3,3.0661394E3,3.6867598E3,3.1551157E3,3.631466E3,9.8175E2,3.376955E3,4.180944E3,5.0069277E3,4.2566465E3,5.054266E3,5.7828555E3,7.480546E3,5.0675464E3,6.498034E3,6.5965015E3,8.849519E3,5.0464897E3,5.9569966E3,6.3282275E3,7.848109E3,7.3036016E3,9.435648E3,9.581666E3,1.1549902E4,5.6898027E3,8.561882E3,9.114512E3,1.1685383E4,1.2302665E4,1.4668561E4,8.274018E3,1.0778269E4,1.2347471E4,1.533421E4,1.352881E4,1.4916138E4],"categories":[],"categories_nodes":[],"categories_segments":[],"categories_sizes":[],"default_left":[1,1,1,1,1,1,1,1,1,1,1,1,1,1,1,1,1,1,1,1,1,1,1,1,1,1,1,1,1,1,1,1,1,1,1,1,1,1,1,1,1,1,1,0,1,1,1,1,1,1,1,1,1,1,1,1,1,0,1,1,1,1,0,0,0,0,0,0,0,0,0,0,0,0,0,0,0,0,0,0,0,0,0,0,0,0,0,0,0,0,0,0,0,0,0,0,0,0,0,0,0,0,0,0,0,0,0,0,0,0,0,0,0,0,0,0,0,0,0,0,0],"id":0,"left_children":[1,3,5,7,9,11,13,15,17,19,21,23,25,27,29,31,33,35,37,39,41,43,45,47,49,51,53,55,57,59,61,63,65,67,69,71,73,75,77,79,81,83,85,-1,87,89,91,93,95,97,99,101,103,105,107,109,111,-1,113,115,117,119,-1,-1,-1,-1,-1,-1,-1,-1,-1,-1,-1,-1,-1,-1,-1,-1,-1,-1,-1,-1,-1,-1,-1,-1,-1,-1,-1,-1,-1,-1,-1,-1,-1,-1,-1,-1,-1,-1,-1,-1,-1,-1,-1,-1,-1,-1,-1,-1,-1,-1,-1,-1,-1,-1,-1,-1,-1,-1,-1],"loss_changes":[3.1289803E11,2.295495E10,6.7541664E10,3.3278996E9,2.3786865E9,1.7457578E10,5.1015516E9,1.9563571E8,3.7371392E8,3.921019E8,2.4264704E8,3.8623314E9,3.88173E9,4.335239E9,5.8308854E9,5.6318464E7,7.007514E7,1.5054131E8,9.885235E7,1.081815E8,2.744197E8,7.200205E7,1.9680051E8,1.8123244E9,9.5104205E8,2.776658E8,2.1175665E9,1.6986522E9,4.494459E8,1.9326976E9,2.929623E8,2.4382976E7,2.6160512E7,1.7443584E7,1.3896576E7,2.3416832E7,5.259008E7,1.44704E7,1.8877952E7,4.6019584E7,3.558656E7,3.4834944E7,1.1922022E8,0E0,1.1642368E7,6.2976E4,1.23136E8,6.303908E8,3.803177E8,3.4795725E8,1.132372E9,3.081216E7,1.2033741E8,1.2811305E9,5.170135E8,4.5943603E8,1.2395889E9,0E0,1.4219264E8,8.126464E8,2.6495795E8,6.1874176E7,0E0,0E0,0E0,0E0,0E0,0E0,0E0,0E0,0E0,0E0,0E0,0E0,0E0,0E0,0E0,0E0,0E0,0E0,0E0,0E0,0E0,0E0,0E0,0E0,0E0,0E0,0E0,0E0,0E0,0E0,0E0,0E0,0E0,0E0,0E0,0E0,0E0,0E0,0E0,0E0,0E0,0E0,0E0,0E0,0E0,0E0,0E0,0E0,0E0,0E0,0E0,0E0,0E0,0E0,0E0,0E0,0E0,0E0,0E0],"parents":[2147483647,0,0,1,1,2,2,3,3,4,4,5,5,6,6,7,7,8,8,9,9,10,10,11,11,12,12,13,13,14,14,15,15,16,16,17,17,18,18,19,19,20,20,21,21,22,22,23,23,24,24,25,25,26,26,27,27,28,28,29,29,30,30,31,31,32,32,33,33,34,34,35,35,36,36,37,37,38,38,39,39,40,40,41,41,42,42,44,44,45,45,46,46,47,47,48,48,49,49,50,50,51,51,52,52,53,53,54,54,55,55,56,56,58,58,59,59,60,60,61,61],"right_children":[2,4,6,8,10,12,14,16,18,20,22,24,26,28,30,32,34,36,38,40,42,44,46,48,50,52,54,56,58,60,62,64,66,68,70,72,74,76,78,80,82,84,86,-1,88,90,92,94,96,98,100,102,104,106,108,110,112,-1,114,116,118,120,-1,-1,-1,-1,-1,-1,-1,-1,-1,-1,-1,-1,-1,-1,-1,-1,-1,-1,-1,-1,-1,-1,-1,-1,-1,-1,-1,-1,-1,-1,-1,-1,-1,-1,-1,-1,-1,-1,-1,-1,-1,-1,-1,-1,-1,-1,-1,-1,-1,-1,-1,-1,-1,-1,-1,-1,-1,-1,-1],"split_conditions":[9.85E-1,6.25E-1,7.1949997E0,4.5499998E-1,8.45E-1,3.5E0,2.5E0,4.585E0,4.5E0,2.5E0,1.5E0,2.5E0,2.5E0,1.795E0,2.5E0,5.5E0,4.5E0,2.5E0,3.5E0,7.45E-1,2.5E0,5E-1,1.5E0,1.195E0,2.5E0,4.165E0,6.715E0,1.5E0,5E-1,7.665E0,7.525E0,2.5E0,2.9500002E-1,2.5E0,2.5E0,1.5E0,2.5E0,1.5E0,5.5E0,4.5E0,3.5E0,5E-1,4.5E0,6.424141E2,2.5E0,5.915E0,3.5E0,1.5E0,1.385E0,6.775E0,1.175E0,1.5E0,1.5E0,4.5E0,4.5E0,5E-1,2.5E0,1.7529451E3,1.5E0,5E-1,1.865E0,3.5E0,4.8510454E3,1.6394421E2,2.0572972E2,1.780281E2,2.67896E2,2.3426135E2,2.7948828E2,2.8426712E2,3.5665024E2,3.5138773E2,4.2411926E2,4.121492E2,5.2998535E2,4.5575455E2,5.941993E2,7.157577E2,8.755434E2,6.528232E2,7.574098E2,7.410703E2,8.790395E2,6.111294E2,7.8634796E2,9.1984186E2,1.106028E3,9.465347E2,1.0894398E3,2.9452502E2,1.01308655E3,1.2542832E3,1.5020784E3,1.276994E3,1.5162799E3,1.7348567E3,2.2441638E3,1.5202639E3,1.9494103E3,1.9789506E3,2.6548557E3,1.513947E3,1.787099E3,1.8984684E3,2.3544329E3,2.1910806E3,2.8306946E3,2.8745E3,3.464971E3,1.7069409E3,2.5685647E3,2.7343535E3,3.505615E3,3.6907996E3,4.4005684E3,2.4822053E3,3.2334807E3,3.7042415E3,4.600263E3,4.058643E3,4.4748413E3],"split_indices":[0,0,7,0,0,3,3,6,3,3,3,3,2,0,2,3,3,3,2,0,2,3,2,0,2,8,7,3,3,7,7,2,0,3,2,3,2,2,2,2,2,2,3,0,2,7,3,3,0,7,0,2,2,3,3,3,2,0,2,2,0,2,0,0,0,0,0,0,0,0,0,0,0,0,0,0,0,0,0,0,0,0,0,0,0,0,0,0,0,0,0,0,0,0,0,0,0,0,0,0,0,0,0,0,0,0,0,0,0,0,0,0,0,0,0,0,0,0,0,0,0],"split_type":[0,0,0,0,0,0,0,0,0,0,0,0,0,0,0,0,0,0,0,0,0,0,0,0,0,0,0,0,0,0,0,0,0,0,0,0,0,0,0,0,0,0,0,0,0,0,0,0,0,0,0,0,0,0,0,0,0,0,0,0,0,0,0,0,0,0,0,0,0,0,0,0,0,0,0,0,0,0,0,0,0,0,0,0,0,0,0,0,0,0,0,0,0,0,0,0,0,0,0,0,0,0,0,0,0,0,0,0,0,0,0,0,0,0,0,0,0,0,0,0,0],"sum_hessian":[4.0904E4,2.7418E4,1.3486E4,1.9682E4,7.736E3,9.999E3,3.487E3,1.3757E4,5.925E3,5.513E3,2.223E3,7.559E3,2.44E3,1.82E3,1.667E3,9.075E3,4.682E3,4.694E3,1.231E3,2.654E3,2.859E3,6.94E2,1.529E3,5.468E3,2.091E3,5.93E2,1.847E3,1.535E3,2.85E2,9.42E2,7.25E2,7.005E3,2.07E3,3.245E3,1.437E3,2.014E3,2.68E3,7.09E2,5.22E2,1.802E3,8.52E2,9.24E2,1.935E3,4.5E1,6.49E2,2.67E2,1.262E3,4.098E3,1.37E3,7.6E2,1.331E3,2.93E2,3E2,1.189E3,6.58E2,7.2E2,8.15E2,9E0,2.76E2,7.37E2,2.05E2,5.47E2,1.78E2,1.682E3,5.323E3,3.62E2,1.708E3,1.431E3,1.814E3,3.41E2,1.096E3,6.18E2,1.396E3,4.27E2,2.253E3,9.8E1,6.11E2,4.1E2,1.12E2,1.128E3,6.74E2,3.36E2,5.16E2,1.42E2,7.82E2,1.503E3,4.32E2,1.33E2,5.16E2,1E0,2.66E2,1E3,2.62E2,2.068E3,2.03E3,1.207E3,1.63E2,4.4E2,3.2E2,1.031E3,3E2,1.48E2,1.45E2,1.77E2,1.23E2,5.74E2,6.15E2,2.92E2,3.66E2,7E1,6.5E2,3.95E2,4.2E2,8.7E1,1.89E2,1.99E2,5.38E2,1.18E2,8.7E1,2.82E2,2.65E2],"tree_param":{"num_deleted":"0","num_feature":"9","num_nodes":"121","size_leaf_vector":"0"}},{"base_weights":[2.4978855E3,1.1382318E3,5.261869E3,7.392033E2,2.1751165E3,4.2929004E3,7.850685E3,5.519931E2,1.1977069E3,1.906511E3,2.7524348E3,3.7518145E3,5.93689E3,6.9863306E3,8.830782E3,4.9682767E2,7.012147E2,1.0573827E3,1.4420808E3,1.7776013E3,2.1996453E3,2.5684097E3,3.083818E3,3.4430994E3,4.5512964E3,5.1127676E3,7.146048E3,6.560583E3,1.0106513E4,7.6496045E3,1.0336351E4,3.8122736E2,5.307968E2,6.033184E2,7.959989E2,8.869564E2,1.1313187E3,1.2981234E3,1.6116348E3,1.593514E3,1.9071611E3,1.9454921E3,2.5141262E3,2.3098452E3,2.742012E3,2.651137E3,3.4665999E3,3.1870261E3,3.9478901E3,3.4619187E3,4.7908184E3,4.7094077E3,6.1293975E3,6.516018E3,9.189265E3,5.926564E3,7.583762E3,4.2701104E3,1.0268392E4,6.898994E3,9.269261E3,1.00647295E4,1.1879629E4,3.3104922E2,4.3207352E2,3.8975357E2,5.720558E2,5.0566263E2,6.253148E2,5.886647E2,8.263272E2,7.1867676E2,9.402542E2,8.81993E2,1.1825172E3,1.2275867E3,1.4293826E3,1.495948E3,2.1531807E3,1.3943834E3,1.6991998E3,1.631706E3,2.005779E3,1.6692975E3,2.0977693E3,2.188185E3,2.6703892E3,1.2957184E3,2.3425266E3,2.5111055E3,2.948647E3,2.158507E3,2.757727E3,3.3730637E3,4.9941167E3,1.7168083E3,3.24206E3,3.5659011E3,4.355433E3,3.1104368E3,3.989504E3,4.3397173E3,5.5391006E3,4.0051343E3,5.1338394E3,4.4809614E3,6.761101E3,5.7685547E3,7.453807E3,8.599084E3,1.2019419E4,5.1686064E3,6.549547E3,6.534379E3,8.65196E3,7.8726484E3,1.0622985E4,6.259342E3,7.94672E3,8.608325E3,1.0786223E4,9.399657E3,1.0833912E4],"categories":[],"categories_nodes":[],"categories_segments":[],"categories_sizes":[],"default_left":[1,1,1,1,1,1,1,1,1,1,1,1,1,1,1,1,1,1,1,1,1,1,1,1,1,1,1,1,1,1,1,1,1,1,1,1,1,1,1,1,1,1,1,1,1,1,1,1,1,1,1,1,1,1,1,1,1,0,1,1,1,1,0,0,0,0,0,0,0,0,0,0,0,0,0,0,0,0,0,0,0,0,0,0,0,0,0,0,0,0,0,0,0,0,0,0,0,0,0,0,0,0,0,0,0,0,0,0,0,0,0,0,0,0,0,0,0,0,0,0,0,0,0],"id":1,"left_children":[1,3,5,7,9,11,13,15,17,19,21,23,25,27,29,31,33,35,37,39,41,43,45,47,49,51,53,55,57,59,61,63,65,67,69,71,73,75,77,79,81,83,85,87,89,91,93,95,97,99,101,103,105,107,109,111,113,-1,115,117,119,121,-1,-1,-1,-1,-1,-1,-1,-1,-1,-1,-1,-1,-1,-1,-1,-1,-1,-1,-1,-1,-1,-1,-1,-1,-1,-1,-1,-1,-1,-1,-1,-1,-1,-1,-1,-1,-1,-1,-1,-1,-1,-1,-1,-1,-1,-1,-1,-1,-1,-1,-1,-1,-1,-1,-1,-1,-1,-1,-1,-1,-1],"loss_changes":[1.5371744E11,1.1342905E10,3.3798193E10,1.698989E9,1.1762401E9,8.709456E9,3.049046E9,1.1540813E8,1.9530854E8,1.9269837E8,1.3947494E8,1.807786E9,2.3839457E9,2.5320653E9,2.9743514E9,4.012621E7,3.471501E7,4.4989184E7,4.8946176E7,8.327578E7,1.21792E8,6.369075E7,1.3291418E8,6.7690906E8,5.1962266E8,5.649121E8,1.2042404E9,1.0734387E9,1.762898E8,1.1104461E9,1.9566592E8,5.816992E6,4.5953024E7,3.700672E6,1.1611904E7,9.270784E6,3.1405824E7,8.763136E6,5.6672E7,2.9219584E7,5.4288896E7,3.3551616E7,3.0064128E7,1.794432E7,3.6873216E7,1.541888E7,4.773581E7,2.811822E8,2.6328883E8,5.694413E7,5.437276E8,2.9060915E8,3.945636E8,4.8552755E8,2.7914445E8,4.709253E8,6.788096E8,0E0,1.0836173E8,3.9525786E8,2.109399E8,2.2863462E8,0E0,0E0,0E0,0E0,0E0,0E0,0E0,0E0,0E0,0E0,0E0,0E0,0E0,0E0,0E0,0E0,0E0,0E0,0E0,0E0,0E0,0E0,0E0,0E0,0E0,0E0,0E0,0E0,0E0,0E0,0E0,0E0,0E0,0E0,0E0,0E0,0E0,0E0,0E0,0E0,0E0,0E0,0E0,0E0,0E0,0E0,0E0,0E0,0E0,0E0,0E0,0E0,0E0,0E0,0E0,0E0,0E0,0E0,0E0,0E0,0E0],"parents":[2147483647,0,0,1,1,2,2,3,3,4,4,5,5,6,6,7,7,8,8,9,9,10,10,11,11,12,12,13,13,14,14,15,15,16,16,17,17,18,18,19,19,20,20,21,21,22,22,23,23,24,24,25,25,26,26,27,27,28,28,29,29,30,30,31,31,32,32,33,33,34,34,35,35,36,36,37,37,38,38,39,39,40,40,41,41,42,42,43,43,44,44,45,45,46,46,47,47,48,48,49,49,50,50,51,51,52,52,53,53,54,54,55,55,56,56,58,58,59,59,60,60,61,61],"right_children":[2,4,6,8,10,12,14,16,18,20,22,24,26,28,30,32,34,36,38,40,42,44,46,48,50,52,54,56,58,60,62,64,66,68,70,72,74,76,78,80,82,84,86,88,90,92,94,96,98,100,102,104,106,108,110,112,114,-1,116,118,120,122,-1,-1,-1,-1,-1,-1,-1,-1,-1,-1,-1,-1,-1,-1,-1,-1,-1,-1,-1,-1,-1,-1,-1,-1,-1,-1,-1,-1,-1,-1,-1,-1,-1,-1,-1,-1,-1,-1,-1,-1,-1,-1,-1,-1,-1,-1,-1,-1,-1,-1,-1,-1,-1,-1,-1,-1,-1,-1,-1,-1,-1],"split_conditions":[9.85E-1,5.545E0,1.395E0,4.95E-1,6.0150003E0,3.5E0,2.5E0,4.685E0,3.5E0,3.5E0,2.5E0,2.5E0,3.5E0,1.915E0,2.5E0,4.295E0,3.5E0,3.5E0,3.5E0,3.5E0,3.5E0,3.5E0,2.5E0,6.675E0,1.5E0,6.865E0,5.5E0,3.5E0,5E-1,1.645E0,1.685E0,4.5E0,2.5E0,1.5E0,1.5E0,1.5E0,1.5E0,5.2650003E0,5.5E0,5.725E0,1.5E0,1.5E0,5.715E0,5E-1,1.5E0,5E-1,5.5E0,5E-1,1.5E0,1.215E0,6.635E0,2.5E0,1.5E0,1.055E0,5.5E0,1.5E0,1.5E0,1.2810332E3,5E-1,1.5E0,1.865E0,3.5E0,3.563889E3,9.931477E1,1.2962206E2,1.1692608E2,1.7161674E2,1.5169879E2,1.8759445E2,1.7659941E2,2.4789818E2,2.1560304E2,2.8207626E2,2.645979E2,3.547552E2,3.68276E2,4.288148E2,4.4878442E2,6.459542E2,4.1831503E2,5.0975998E2,4.8951184E2,6.0173376E2,5.0078928E2,6.293308E2,6.5645557E2,8.0111676E2,3.8871555E2,7.02758E2,7.5333167E2,8.845941E2,6.475521E2,8.273182E2,1.0119191E3,1.4982351E3,5.1504254E2,9.7261804E2,1.0697704E3,1.30663E3,9.3313104E2,1.1968512E3,1.3019153E3,1.6617302E3,1.2015403E3,1.5401519E3,1.3442885E3,2.0283304E3,1.7305665E3,2.2361423E3,2.5797253E3,3.605826E3,1.550582E3,1.9648641E3,1.9603137E3,2.5955881E3,2.3617947E3,3.1868958E3,1.8778026E3,2.384016E3,2.5824976E3,3.235867E3,2.8198972E3,3.2501738E3],"split_indices":[0,7,0,0,7,3,3,6,3,3,3,3,2,0,2,6,3,2,2,2,2,2,2,7,2,7,3,2,3,0,0,3,3,3,2,2,3,6,3,7,3,2,7,3,3,2,3,3,3,0,7,2,2,0,2,3,3,0,2,2,0,3,0,0,0,0,0,0,0,0,0,0,0,0,0,0,0,0,0,0,0,0,0,0,0,0,0,0,0,0,0,0,0,0,0,0,0,0,0,0,0,0,0,0,0,0,0,0,0,0,0,0,0,0,0,0,0,0,0,0,0,0,0],"split_type":[0,0,0,0,0,0,0,0,0,0,0,0,0,0,0,0,0,0,0,0,0,0,0,0,0,0,0,0,0,0,0,0,0,0,0,0,0,0,0,0,0,0,0,0,0,0,0,0,0,0,0,0,0,0,0,0,0,0,0,0,0,0,0,0,0,0,0,0,0,0,0,0,0,0,0,0,0,0,0,0,0,0,0,0,0,0,0,0,0,0,0,0,0,0,0,0,0,0,0,0,0,0,0,0,0,0,0,0,0,0,0,0,0,0,0,0,0,0,0,0,0,0,0],"sum_hessian":[4.0904E4,2.7418E4,1.3486E4,1.98E4,7.618E3,9.815E3,3.671E3,1.4061E4,5.739E3,5.202E3,2.416E3,7.387E3,2.428E3,1.955E3,1.716E3,1.0269E4,3.792E3,3.649E3,2.09E3,3.618E3,1.584E3,1.559E3,8.57E2,5.333E3,2.054E3,1.447E3,9.81E2,1.723E3,2.32E2,9.65E2,7.51E2,2.335E3,7.934E3,1.869E3,1.923E3,1.108E3,2.541E3,1.135E3,9.55E2,1.5E3,2.118E3,8.8E2,7.04E2,6.32E2,9.27E2,4.06E2,4.51E2,3.543E3,1.79E3,3.73E2,1.681E3,1.04E3,4.07E2,7.53E2,2.28E2,1.068E3,6.55E2,7E0,2.25E2,6.63E2,3.02E2,6.45E2,1.06E2,1.179E3,1.156E3,1.798E3,6.136E3,3.48E2,1.521E3,2.48E2,1.675E3,2.7E2,8.38E2,4.36E2,2.105E3,7.45E2,3.9E2,7.9E2,1.65E2,5.25E2,9.75E2,5.63E2,1.555E3,3.17E2,5.63E2,2.33E2,4.71E2,2.1E1,6.11E2,4.44E2,4.83E2,7.6E1,3.3E2,4.28E2,2.3E1,1.29E2,3.414E3,9.29E2,8.61E2,2.28E2,1.45E2,1.053E3,6.28E2,3.95E2,6.45E2,1.15E2,2.92E2,4.23E2,3.3E2,1.92E2,3.6E1,4.86E2,5.82E2,3.34E2,3.21E2,3.2E1,1.93E2,4.16E2,2.47E2,2.15E2,8.7E1,3.53E2,2.92E2],"tree_param":{"num_deleted":"0","num_feature":"9","num_nodes":"123","size_leaf_vector":"0"}},{"base_weights":[1.7503644E3,8.1748987E2,3.7363618E3,5.203839E2,1.5729333E3,3.0008215E3,5.4362705E3,3.8562982E2,8.407756E2,1.3628557E3,2.018264E3,2.7561484E3,4.866248E3,4.387383E3,5.897819E3,3.1323065E2,4.4791983E2,7.631329E2,1.1284045E3,1.2333219E3,1.5584663E3,1.684888E3,2.1626787E3,2.4199463E3,3.2970303E3,4.375553E3,6.4746914E3,3.760416E3,5.7211147E3,4.557906E3,6.441774E3,2.7161752E2,3.7275644E2,4.0219556E2,5.520791E2,6.5127075E2,8.448841E2,1.02339685E3,1.4758577E3,1.1362726E3,1.4196682E3,1.3789102E3,1.6998547E3,8.367949E2,1.7367316E3,1.7794983E3,2.3566987E3,2.1562542E3,2.6921326E3,2.6939944E3,3.6232454E3,3.5688406E3,4.7274346E3,6.078537E3,8.1462485E3,3.4062217E3,4.6314688E3,5.101878E3,6.65724E3,3.9401777E3,6.2031353E3,6.0971636E3,7.936969E3,2.2310942E2,3.110209E2,2.613104E2,4.2110486E2,3.3355228E2,4.4570398E2,4.8784412E2,6.269435E2,5.645103E2,7.4553687E2,7.736283E2,9.375743E2,8.445757E2,1.0869355E3,1.2892852E3,1.772131E3,1.8254831E2,1.1526522E3,1.3666857E3,2.1141604E3,1.1244968E3,1.449127E3,1.2685978E3,1.804181E3,9.843498E2,4.29216E2,1.724312E3,5.33322E3,1.5901846E3,1.9276019E3,2.2808071E3,3.3944893E3,1.2167228E3,2.2331597E3,2.0345774E3,2.8781487E3,2.3440398E3,3.032688E3,3.291907E3,4.270246E3,3.225817E3,4.116926E3,4.373836E3,5.532778E3,5.5552466E3,7.252695E3,2.8061584E3,3.7544907E3,4.0957278E3,5.098508E3,4.0876016E3,5.5673604E3,5.489364E3,7.417683E3,1.8560653E3,4.141916E3,3.4223677E3,6.4552383E3,5.682936E3,7.0166816E3,7.483336E3,8.525191E3],"categories":[],"categories_nodes":[],"categories_segments":[],"categories_sizes":[],"default_left":[1,1,1,1,1,1,1,1,1,1,1,1,1,1,1,1,1,1,1,1,1,1,1,1,1,1,1,1,1,1,1,1,1,1,1,1,1,1,1,1,1,1,1,1,1,1,1,1,1,1,1,1,1,1,0,1,1,1,1,1,1,1,1,0,0,0,0,0,0,0,0,0,0,0,0,0,0,0,0,0,0,0,0,0,0,0,0,0,0,0,0,0,0,0,0,0,0,0,0,0,0,0,0,0,0,0,0,0,0,0,0,0,0,0,0,0,0,0,0,0,0,0,0,0,0],"id":2,"left_children":[1,3,5,7,9,11,13,15,17,19,21,23,25,27,29,31,33,35,37,39,41,43,45,47,49,51,53,55,57,59,61,63,65,67,69,71,73,75,77,79,81,83,85,87,89,91,93,95,97,99,101,103,105,107,-1,109,111,113,115,117,119,121,123,-1,-1,-1,-1,-1,-1,-1,-1,-1,-1,-1,-1,-1,-1,-1,-1,-1,-1,-1,-1,-1,-1,-1,-1,-1,-1,-1,-1,-1,-1,-1,-1,-1,-1,-1,-1,-1,-1,-1,-1,-1,-1,-1,-1,-1,-1,-1,-1,-1,-1,-1,-1,-1,-1,-1,-1,-1,-1,-1,-1,-1,-1],"loss_changes":[7.578109E10,6.2462095E9,1.6329523E10,8.622075E8,7.3220915E8,4.1523282E9,1.8849137E9,6.3289216E7,1.3121203E8,1.3340877E8,1.1748659E8,1.4596956E9,8.059126E8,9.9029606E8,1.9662356E9,1.6019392E7,3.5773824E7,4.2064896E7,4.427853E7,5.658368E7,5.157837E7,3.2182272E7,1.2605798E8,3.5170304E8,5.983007E8,2.1391258E8,1.1271987E8,2.3906304E8,1.892137E8,7.8250394E8,9.537864E8,7.25888E6,1.4303488E7,1.5548672E7,1.0769088E7,1.5707328E7,1.7034752E7,1.006912E7,1.3690176E7,3.2923136E7,3.7512704E7,1.5180416E7,5.0981376E7,2.343952E6,2.2964224E7,1.3561344E7,8.361933E7,1.8044928E8,2.9344973E8,1.2196762E8,4.153385E8,3.390899E7,1.3612442E8,8.38231E7,0E0,1.1297382E8,3.816755E7,8.86656E7,9.24969E7,2.3617126E8,1.286313E8,5.638349E8,3.2530432E7,0E0,0E0,0E0,0E0,0E0,0E0,0E0,0E0,0E0,0E0,0E0,0E0,0E0,0E0,0E0,0E0,0E0,0E0,0E0,0E0,0E0,0E0,0E0,0E0,0E0,0E0,0E0,0E0,0E0,0E0,0E0,0E0,0E0,0E0,0E0,0E0,0E0,0E0,0E0,0E0,0E0,0E0,0E0,0E0,0E0,0E0,0E0,0E0,0E0,0E0,0E0,0E0,0E0,0E0,0E0,0E0,0E0,0E0,0E0,0E0,0E0,0E0],"parents":[2147483647,0,0,1,1,2,2,3,3,4,4,5,5,6,6,7,7,8,8,9,9,10,10,11,11,12,12,13,13,14,14,15,15,16,16,17,17,18,18,19,19,20,20,21,21,22,22,23,23,24,24,25,25,26,26,27,27,28,28,29,29,30,30,31,31,32,32,33,33,34,34,35,35,36,36,37,37,38,38,39,39,40,40,41,41,42,42,43,43,44,44,45,45,46,46,47,47,48,48,49,49,50,50,51,51,52,52,53,53,55,55,56,56,57,57,58,58,59,59,60,60,61,61,62,62],"right_children":[2,4,6,8,10,12,14,16,18,20,22,24,26,28,30,32,34,36,38,40,42,44,46,48,50,52,54,56,58,60,62,64,66,68,70,72,74,76,78,80,82,84,86,88,90,92,94,96,98,100,102,104,106,108,-1,110,112,114,116,118,120,122,124,-1,-1,-1,-1,-1,-1,-1,-1,-1,-1,-1,-1,-1,-1,-1,-1,-1,-1,-1,-1,-1,-1,-1,-1,-1,-1,-1,-1,-1,-1,-1,-1,-1,-1,-1,-1,-1,-1,-1,-1,-1,-1,-1,-1,-1,-1,-1,-1,-1,-1,-1,-1,-1,-1,-1,-1,-1,-1,-1,-1,-1,-1],"split_conditions":[6.325E0,6.95E-1,7.065E0,5.025E0,8.95E-1,4.5E0,1.5E0,4.425E0,4.5E0,3E0,1.5E0,2.5E0,4.5E0,7.575E0,1.5E0,4.5E0,4.5E0,2.5E0,4.5E0,4.5E0,2.5E0,5E-1,2.5E0,1.5E0,2.5E0,1.025E0,6.5E0,3.5E0,4.855E0,7.605E0,1.655E0,3.5E0,2.9500002E-1,3.5E0,3.5E0,4.5E0,5.245E0,2.5E0,5.5E0,5E-1,4.5E0,2.5E0,1.5E0,9.85E-1,1.64E0,1.5E0,4.5E0,5E-1,1.5E0,4.135E0,1.105E0,3.5E0,3.5E0,4.105E0,2.4438748E3,5E-1,5E-1,5E-1,5E-1,5E-1,5E-1,3.5E0,7.7349997E0,6.693283E1,9.3306274E1,7.839312E1,1.2633146E2,1.0006569E2,1.337112E2,1.4635324E2,1.8808305E2,1.693531E2,2.2366107E2,2.320885E2,2.812723E2,2.5337271E2,3.260807E2,3.8678555E2,5.3163934E2,5.4764496E1,3.457957E2,4.100057E2,6.3424817E2,3.3734906E2,4.347381E2,3.8057935E2,5.4125433E2,2.9530496E2,1.287648E2,5.1729364E2,1.5999662E3,4.770554E2,5.782806E2,6.842422E2,1.0183468E3,3.6501685E2,6.6994794E2,6.103732E2,8.6344464E2,7.03212E2,9.0980646E2,9.8757214E2,1.2810739E3,9.677451E2,1.2350778E3,1.3121509E3,1.6598334E3,1.6665741E3,2.1758086E3,8.418476E2,1.1263473E3,1.2287184E3,1.5295524E3,1.2262805E3,1.6702081E3,1.6468092E3,2.225305E3,5.5681964E2,1.2425748E3,1.0267103E3,1.9365715E3,1.7048809E3,2.1050046E3,2.245001E3,2.5575576E3],"split_indices":[7,0,7,7,0,3,2,6,3,1,3,3,2,7,3,3,3,3,2,2,3,3,2,3,2,0,3,3,8,7,0,2,0,2,2,2,6,2,3,3,3,2,2,0,0,2,3,3,2,8,0,2,2,8,0,2,2,2,2,3,3,3,7,0,0,0,0,0,0,0,0,0,0,0,0,0,0,0,0,0,0,0,0,0,0,0,0,0,0,0,0,0,0,0,0,0,0,0,0,0,0,0,0,0,0,0,0,0,0,0,0,0,0,0,0,0,0,0,0,0,0,0,0,0,0],"split_type":[0,0,0,0,0,0,0,0,0,0,0,0,0,0,0,0,0,0,0,0,0,0,0,0,0,0,0,0,0,0,0,0,0,0,0,0,0,0,0,0,0,0,0,0,0,0,0,0,0,0,0,0,0,0,0,0,0,0,0,0,0,0,0,0,0,0,0,0,0,0,0,0,0,0,0,0,0,0,0,0,0,0,0,0,0,0,0,0,0,0,0,0,0,0,0,0,0,0,0,0,0,0,0,0,0,0,0,0,0,0,0,0,0,0,0,0,0,0,0,0,0,0,0,0,0],"sum_hessian":[4.0904E4,2.7832E4,1.3072E4,1.9977E4,7.855E3,9.126E3,3.946E3,1.4064E4,5.913E3,5.34E3,2.515E3,8.07E3,1.056E3,1.209E3,2.737E3,6.507E3,7.557E3,4.659E3,1.254E3,3.217E3,2.123E3,7.64E2,1.751E3,4.98E3,3.09E3,8.12E2,2.44E2,8.25E2,3.84E2,7.93E2,1.944E3,3.833E3,2.674E3,5.255E3,2.302E3,1.971E3,2.688E3,9.66E2,2.88E2,2.12E3,1.097E3,9.4E2,1.183E3,4.5E1,7.19E2,5.92E2,1.159E3,2.534E3,2.446E3,1.088E3,2.002E3,2.5E2,5.62E2,2.01E2,4.3E1,5.9E2,2.35E2,2.35E2,1.49E2,5.79E2,2.14E2,1.584E3,3.6E2,1.721E3,2.112E3,8.11E2,1.863E3,2.042E3,3.213E3,1.243E3,1.059E3,1.03E3,9.41E2,1.525E3,1.163E3,2.57E2,7.09E2,1.8E2,1.08E2,3.6E1,2.084E3,1.022E3,7.5E1,2.07E2,7.33E2,2.33E2,9.5E2,3.2E1,1.3E1,7.18E2,1E0,2.65E2,3.27E2,1.083E3,7.6E1,1.93E2,2.341E3,5.42E2,1.904E3,5.39E2,5.49E2,1.328E3,6.74E2,1.58E2,9.2E1,3.95E2,1.67E2,1.43E2,5.8E1,2.2E2,3.7E2,1.14E2,1.21E2,7.7E1,1.58E2,6.2E1,8.7E1,5.2E1,5.27E2,1.9E1,1.95E2,1.097E3,4.87E2,2.11E2,1.49E2],"tree_param":{"num_deleted":"0","num_feature":"9","num_nodes":"125","size_leaf_vector":"0"}},{"base_weights":[1.2265873E3,5.8897156E2,2.659885E3,3.7570996E2,1.163174E3,2.1911123E3,4.0165159E3,2.730259E2,6.132188E2,1.007832E3,1.4971407E3,2.0101212E3,3.5529011E3,3.4983171E3,4.5860454E3,2.4112724E2,3.6561536E2,5.640038E2,8.1205475E2,9.637223E2,1.3340835E3,1.3354604E3,1.7792556E3,1.7548716E3,2.411408E3,2.9587068E3,4.2235654E3,3.123515E3,4.4366187E3,3.9801804E3,5.389351E3,1.6508148E2,2.646937E2,3.3921585E2,4.963805E2,5.022945E2,6.425773E2,7.638159E2,1.233919E3,8.7390576E2,1.1226847E3,1.1348899E3,1.6724526E3,1.3256428E3,5.956224E3,1.4557755E3,2.236482E3,1.5910573E3,2.1798423E3,2.1432588E3,2.938522E3,2.6623896E3,3.6433271E3,3.847943E3,5.9006196E3,2.231116E3,3.3395356E3,3.434376E3,4.734231E3,3.5473767E3,5.173756E3,4.936176E3,5.9268955E3,1.1425414E2,1.9990302E2,1.7625153E2,2.8887195E2,2.8613367E2,3.7387817E2,4.7752158E2,7.96873E2,4.1616644E2,5.6498553E2,3.9473087E2,6.7026465E2,6.899935E2,9.163247E2,1.086172E3,2.0518494E3,7.9375934E2,1.00257245E3,9.823957E2,1.2602882E3,1.0244968E3,1.5984213E3,1.5542952E3,2.5306648E3,9.865088E2,1.4328401E3,9.755448E2,1.5174717E3,2.071792E3,3.1435583E3,1.4528102E3,1.9508951E3,5.801244E2,2.2608308E3,1.9877058E3,2.7012363E3,2.6601482E3,4.046118E3,1.1168833E3,2.750898E3,2.6306738E3,4.0892537E3,3.492507E3,5.196013E3,5.122555E3,6.78404E3,1.7316462E3,2.474672E3,2.6141458E3,3.5722078E3,2.6633982E3,4.0162249E3,3.5686711E3,5.1196636E3,1.319968E3,3.623426E3,2.3719924E3,5.289277E3,4.581212E3,6.1744263E3,2.3530671E3,5.9802153E3],"categories":[],"categories_nodes":[],"categories_segments":[],"categories_sizes":[],"default_left":[1,1,1,1,1,1,1,1,1,1,1,1,1,1,1,1,1,1,1,1,1,1,1,1,1,1,1,1,1,1,1,1,1,1,1,1,1,1,1,1,1,1,1,1,0,1,1,1,1,1,1,1,1,1,1,1,1,1,1,1,1,1,1,0,0,0,0,0,0,0,0,0,0,0,0,0,0,0,0,0,0,0,0,0,0,0,0,0,0,0,0,0,0,0,0,0,0,0,0,0,0,0,0,0,0,0,0,0,0,0,0,0,0,0,0,0,0,0,0,0,0,0,0,0,0],"id":3,"left_children":[1,3,5,7,9,11,13,15,17,19,21,23,25,27,29,31,33,35,37,39,41,43,45,47,49,51,53,55,57,59,61,63,65,67,69,71,73,75,77,79,81,83,85,87,-1,89,91,93,95,97,99,101,103,105,107,109,111,113,115,117,119,121,123,-1,-1,-1,-1,-1,-1,-1,-1,-1,-1,-1,-1,-1,-1,-1,-1,-1,-1,-1,-1,-1,-1,-1,-1,-1,-1,-1,-1,-1,-1,-1,-1,-1,-1,-1,-1,-1,-1,-1,-1,-1,-1,-1,-1,-1,-1,-1,-1,-1,-1,-1,-1,-1,-1,-1,-1,-1,-1,-1,-1,-1,-1],"loss_changes":[3.738123E10,3.4665175E9,8.0003645E9,5.0335488E8,3.9624806E8,2.300326E9,9.381069E8,4.2489216E7,6.0516864E7,7.406438E7,1.0855373E8,8.4244275E8,4.2466406E8,5.829407E8,7.266017E8,1.917696E7,1.2576928E7,2.391104E7,2.4169728E7,6.492365E7,3.9958016E7,6.242048E7,1.2734285E8,3.485102E8,4.4756173E8,1.0897562E8,3.0045286E8,2.269655E8,1.2751155E8,4.362404E8,1.3103309E8,4.472672E6,1.745376E7,5.55088E6,3.121664E6,1.4904896E7,1.4798016E7,1.1864704E7,1.2877168E7,2.9666304E7,3.0865024E7,1.8523712E7,1.9186752E7,5.486259E7,0E0,1.39264E7,4.7864064E7,1.7889075E8,1.8058906E8,1.796782E8,3.2222822E8,5.328512E7,6.781542E7,1.840553E8,2.848512E7,2.4910592E7,1.5555789E8,4.044275E7,1.4750054E8,1.0515354E8,6.254387E7,1.3126554E8,4.2333184E7,0E0,0E0,0E0,0E0,0E0,0E0,0E0,0E0,0E0,0E0,0E0,0E0,0E0,0E0,0E0,0E0,0E0,0E0,0E0,0E0,0E0,0E0,0E0,0E0,0E0,0E0,0E0,0E0,0E0,0E0,0E0,0E0,0E0,0E0,0E0,0E0,0E0,0E0,0E0,0E0,0E0,0E0,0E0,0E0,0E0,0E0,0E0,0E0,0E0,0E0,0E0,0E0,0E0,0E0,0E0,0E0,0E0,0E0,0E0,0E0,0E0,0E0],"parents":[2147483647,0,0,1,1,2,2,3,3,4,4,5,5,6,6,7,7,8,8,9,9,10,10,11,11,12,12,13,13,14,14,15,15,16,16,17,17,18,18,19,19,20,20,21,21,22,22,23,23,24,24,25,25,26,26,27,27,28,28,29,29,30,30,31,31,32,32,33,33,34,34,35,35,36,36,37,37,38,38,39,39,40,40,41,41,42,42,43,43,45,45,46,46,47,47,48,48,49,49,50,50,51,51,52,52,53,53,54,54,55,55,56,56,57,57,58,58,59,59,60,60,61,61,62,62],"right_children":[2,4,6,8,10,12,14,16,18,20,22,24,26,28,30,32,34,36,38,40,42,44,46,48,50,52,54,56,58,60,62,64,66,68,70,72,74,76,78,80,82,84,86,88,-1,90,92,94,96,98,100,102,104,106,108,110,112,114,116,118,120,122,124,-1,-1,-1,-1,-1,-1,-1,-1,-1,-1,-1,-1,-1,-1,-1,-1,-1,-1,-1,-1,-1,-1,-1,-1,-1,-1,-1,-1,-1,-1,-1,-1,-1,-1,-1,-1,-1,-1,-1,-1,-1,-1,-1,-1,-1,-1,-1,-1,-1,-1,-1,-1,-1,-1,-1,-1,-1,-1,-1,-1,-1,-1],"split_conditions":[6.355E0,5.665E0,7.245E0,5.065E0,6.135E0,4.5E0,2.5E0,4.715E0,4.5E0,4.5E0,2.5E0,2.5E0,3.5E0,7.645E0,2.5E0,2.5E0,5.5E0,5.285E0,5.5E0,7.65E-1,3.5E0,1.54E0,3.5E0,6.785E0,3.5E0,6.885E0,6.865E0,1.5E0,5E-1,1.665E0,3.5E0,1.5E0,2.5E0,2.5E0,5.5E0,2.5E0,1.5E0,5.3450003E0,6.5E0,4.5E0,3.5E0,3.6350002E0,7.95E-1,2.5E0,1.7868673E3,5E-1,4.5E0,4.5E0,5E-1,6.925E0,6.8450003E0,5E-1,2.5E0,5.5E0,5.5E0,4.535E0,5E-1,1.89E0,1.5E0,4.365E0,5E-1,4.5E0,4.3450003E0,3.4276245E1,5.9970905E1,5.287546E1,8.666159E1,8.58401E1,1.1216346E2,1.4325648E2,2.390619E2,1.2484994E2,1.6949567E2,1.18419266E2,2.010794E2,2.0699806E2,2.7489743E2,3.2585162E2,6.155548E2,2.381278E2,3.0077176E2,2.9471872E2,3.780865E2,3.0734906E2,4.795264E2,4.6628857E2,7.5919946E2,2.9595264E2,4.2985205E2,2.9266345E2,4.5524152E2,6.215376E2,9.4306757E2,4.3584308E2,5.8526855E2,1.7403732E2,6.7824927E2,5.9631177E2,8.103709E2,7.980445E2,1.2138354E3,3.35065E2,8.252694E2,7.892022E2,1.2267761E3,1.0477522E3,1.5588041E3,1.5367666E3,2.035212E3,5.194939E2,7.424017E2,7.842438E2,1.0716624E3,7.990195E2,1.2048676E3,1.0706014E3,1.5358992E3,3.9599042E2,1.0870278E3,7.115978E2,1.5867831E3,1.3743636E3,1.852328E3,7.0592017E2,1.7940647E3],"split_indices":[7,7,7,6,7,3,2,6,3,3,3,3,2,7,3,2,3,6,2,0,2,0,2,7,2,7,7,3,2,0,2,2,3,3,2,3,2,7,3,2,2,8,0,2,0,2,3,2,3,7,7,2,2,2,3,8,2,0,3,8,3,3,8,0,0,0,0,0,0,0,0,0,0,0,0,0,0,0,0,0,0,0,0,0,0,0,0,0,0,0,0,0,0,0,0,0,0,0,0,0,0,0,0,0,0,0,0,0,0,0,0,0,0,0,0,0,0,0,0,0,0,0,0,0,0],"split_type":[0,0,0,0,0,0,0,0,0,0,0,0,0,0,0,0,0,0,0,0,0,0,0,0,0,0,0,0,0,0,0,0,0,0,0,0,0,0,0,0,0,0,0,0,0,0,0,0,0,0,0,0,0,0,0,0,0,0,0,0,0,0,0,0,0,0,0,0,0,0,0,0,0,0,0,0,0,0,0,0,0,0,0,0,0,0,0,0,0,0,0,0,0,0,0,0,0,0,0,0,0,0,0,0,0,0,0,0,0,0,0,0,0,0,0,0,0,0,0,0,0,0,0,0,0],"sum_hessian":[4.0904E4,2.8311E4,1.2593E4,2.0645E4,7.666E3,9.361E3,3.232E3,1.4415E4,6.23E3,5.235E3,2.431E3,8.265E3,1.096E3,1.696E3,1.536E3,1.0724E4,3.691E3,4.997E3,1.233E3,4.615E3,6.2E2,1.549E3,8.82E2,5.055E3,3.21E3,5.84E2,5.12E2,1.215E3,4.81E2,8.79E2,6.57E2,2.539E3,8.185E3,3.074E3,6.17E2,2.803E3,2.194E3,1.109E3,1.24E2,2.953E3,1.662E3,3.93E2,2.27E2,1.547E3,2E0,5.19E2,3.63E2,3.652E3,1.403E3,2.131E3,1.079E3,4.11E2,1.73E2,4.21E2,9.1E1,2.39E2,9.76E2,1.13E2,3.68E2,6.48E2,2.31E2,3.62E2,2.95E2,1.034E3,1.505E3,1.759E3,6.426E3,1.218E3,1.856E3,5.83E2,3.4E1,1.184E3,1.619E3,2.22E2,1.972E3,7.51E2,3.58E2,1.07E2,1.7E1,1.824E3,1.129E3,8.27E2,8.35E2,3.2E2,7.3E1,2.02E2,2.5E1,3.74E2,1.173E3,6.1E1,4.58E2,3.1E2,5.3E1,2.642E3,1.01E3,6.8E1,1.335E3,1.67E3,4.61E2,8.65E2,2.14E2,2.3E1,3.88E2,5.5E1,1.18E2,3.36E2,8.5E1,5.2E1,3.9E1,8.1E1,1.58E2,2.4E2,7.36E2,5.1E1,6.2E1,9.4E1,2.74E2,2.2E1,6.26E2,1E1,2.21E2,2.85E2,7.7E1,5E0,2.9E2],"tree_param":{"num_deleted":"0","num_feature":"9","num_nodes":"125","size_leaf_vector":"0"}},{"base_weights":[8.59657E2,4.1191177E2,1.8729893E3,2.4389374E2,7.656886E2,1.5197104E3,2.7856045E3,1.884159E2,4.0076196E2,6.270101E2,9.731558E2,1.3872711E3,2.4985454E3,2.3931511E3,3.2149963E3,1.326798E2,2.1838962E2,2.5295778E2,4.3190765E2,3.6983646E2,6.799261E2,9.0282367E2,1.3046611E3,9.124307E2,1.5046483E3,2.2208206E3,3.3885815E3,1.9547922E3,2.925314E3,2.754212E3,3.8491667E3,2.778579E1,1.496573E2,1.7730348E2,2.608569E2,2.1851746E2,4.059278E2,3.3736707E2,4.7854556E2,-7.9878174E1,3.920843E2,4.27728E2,7.284255E2,7.433301E2,1.0341926E3,1.1449318E3,1.9916749E3,5.936172E2,1.0896276E3,1.1233497E3,1.6826799E3,2.0469884E3,3.2732214E3,3.1100645E3,4.580354E3,1.5500303E3,2.3132732E3,2.6572808E3,3.6503267E3,2.4152776E3,3.5472642E3,3.7038071E3,4.6274175E3,-3.2972607E1,5.7778576E1,1.22459656E2,1.9432831E2,1.05408424E2,1.9283113E2,2.296953E2,3.3940518E2,1.3783289E2,2.787931E2,3.6417432E2,4.9050192E2,2.9925217E2,4.3922702E2,4.5632404E2,6.645913E2,-1.11246025E2,1.4255385E2,1.455119E2,4.1353094E2,2.3720049E2,5.1792444E2,6.975176E2,1.0954762E3,5.4366754E2,8.162622E2,8.420718E2,1.1599513E3,1.077644E3,1.5552776E3,1.830377E3,2.795048E3,2.6824524E2,7.00681E2,6.9047546E2,1.2475676E3,9.352531E2,1.32449E3,1.490969E3,2.121614E3,1.7632598E3,2.4438071E3,1.9400077E3,3.6800027E3,2.7793157E3,4.13334E3,3.6979143E3,5.454786E3,8.1051904E2,1.6951458E3,2.1518845E3,2.9490928E3,2.384967E3,3.4410518E3,2.7508435E3,3.985878E3,3.2479953E2,2.4976367E3,3.2490303E3,4.5608135E3,3.31697E3,4.100583E3,4.6485337E3,1.2051006E3],"categories":[],"categories_nodes":[],"categories_segments":[],"categories_sizes":[],"default_left":[1,1,1,1,1,1,1,1,1,1,1,1,1,1,1,1,1,1,1,1,1,1,1,1,1,1,1,1,1,1,1,1,1,1,1,1,1,1,1,1,1,1,1,1,1,1,1,1,1,1,1,1,1,1,1,1,1,1,1,1,1,1,1,0,0,0,0,0,0,0,0,0,0,0,0,0,0,0,0,0,0,0,0,0,0,0,0,0,0,0,0,0,0,0,0,0,0,0,0,0,0,0,0,0,0,0,0,0,0,0,0,0,0,0,0,0,0,0,0,0,0,0,0,0,0,0,0],"id":4,"left_children":[1,3,5,7,9,11,13,15,17,19,21,23,25,27,29,31,33,35,37,39,41,43,45,47,49,51,53,55,57,59,61,63,65,67,69,71,73,75,77,79,81,83,85,87,89,91,93,95,97,99,101,103,105,107,109,111,113,115,117,119,121,123,125,-1,-1,-1,-1,-1,-1,-1,-1,-1,-1,-1,-1,-1,-1,-1,-1,-1,-1,-1,-1,-1,-1,-1,-1,-1,-1,-1,-1,-1,-1,-1,-1,-1,-1,-1,-1,-1,-1,-1,-1,-1,-1,-1,-1,-1,-1,-1,-1,-1,-1,-1,-1,-1,-1,-1,-1,-1,-1,-1,-1,-1,-1,-1,-1],"loss_changes":[1.855843E10,1.6862111E9,4.0371487E9,1.673385E8,2.6221517E8,1.1683144E9,5.816074E8,2.371552E7,2.3023168E7,7.429683E7,8.411034E7,4.425042E8,2.5844582E8,4.214139E8,4.765225E8,8.851952E6,1.60776E7,4.531628E6,1.8132224E7,9.406152E6,5.524352E7,6.252877E7,6.773133E7,8.866816E7,4.314757E8,1.4386022E8,7.00649E7,1.4252954E8,1.5062067E8,2.5189274E8,6.1935616E7,1.2665908E6,5.176168E6,5.226576E6,1.1039456E7,3.453436E6,3.86374E5,5.202944E6,1.1173312E7,3.2983322E5,4.66216E6,1.2508048E7,4.2436736E7,1.9476736E7,3.8985344E7,1.2681856E7,1.0304352E7,1.9563792E7,6.31264E7,7.575296E7,3.6288307E8,7.551667E7,5.522829E7,5.924736E7,1.5323776E7,4.9707776E7,4.824448E7,1.2113254E8,5.5436544E7,1.1660851E8,7.223706E7,7.757056E7,2.058496E6,0E0,0E0,0E0,0E0,0E0,0E0,0E0,0E0,0E0,0E0,0E0,0E0,0E0,0E0,0E0,0E0,0E0,0E0,0E0,0E0,0E0,0E0,0E0,0E0,0E0,0E0,0E0,0E0,0E0,0E0,0E0,0E0,0E0,0E0,0E0,0E0,0E0,0E0,0E0,0E0,0E0,0E0,0E0,0E0,0E0,0E0,0E0,0E0,0E0,0E0,0E0,0E0,0E0,0E0,0E0,0E0,0E0,0E0,0E0,0E0,0E0,0E0,0E0,0E0],"parents":[2147483647,0,0,1,1,2,2,3,3,4,4,5,5,6,6,7,7,8,8,9,9,10,10,11,11,12,12,13,13,14,14,15,15,16,16,17,17,18,18,19,19,20,20,21,21,22,22,23,23,24,24,25,25,26,26,27,27,28,28,29,29,30,30,31,31,32,32,33,33,34,34,35,35,36,36,37,37,38,38,39,39,40,40,41,41,42,42,43,43,44,44,45,45,46,46,47,47,48,48,49,49,50,50,51,51,52,52,53,53,54,54,55,55,56,56,57,57,58,58,59,59,60,60,61,61,62,62],"right_children":[2,4,6,8,10,12,14,16,18,20,22,24,26,28,30,32,34,36,38,40,42,44,46,48,50,52,54,56,58,60,62,64,66,68,70,72,74,76,78,80,82,84,86,88,90,92,94,96,98,100,102,104,106,108,110,112,114,116,118,120,122,124,126,-1,-1,-1,-1,-1,-1,-1,-1,-1,-1,-1,-1,-1,-1,-1,-1,-1,-1,-1,-1,-1,-1,-1,-1,-1,-1,-1,-1,-1,-1,-1,-1,-1,-1,-1,-1,-1,-1,-1,-1,-1,-1,-1,-1,-1,-1,-1,-1,-1,-1,-1,-1,-1,-1,-1,-1,-1,-1,-1,-1,-1,-1,-1,-1],"split_conditions":[3.935E0,5.95E-1,1.495E0,3.105E0,3.685E0,4.5E0,2.5E0,4.375E0,2.5E0,1.5E0,3.5E0,1.5E0,4.5E0,1.575E0,2.5E0,4.0950003E0,3.5E0,5.5E0,2.5E0,5E-1,1.5E0,3.5E0,4.5E0,5E-1,1.5E0,1.255E0,6.5E0,2.5E0,7.915E0,1.615E0,7.605E0,4.5E0,4.5E0,2.5E0,4.5E0,1.5E0,6.5E0,5.5E0,5.5E0,8.1E-1,1.5E0,5E-1,5.5E0,1.5E0,1.5E0,5.5E0,5.5E0,6.545E0,6.565E0,6.5950003E0,1.155E0,5.5E0,2.5E0,1.185E0,5.5E0,5E-1,4.5E0,3.5E0,5E-1,5E-1,4.935E0,3.5E0,6.335E1,-9.891783E0,1.7333574E1,3.67379E1,5.8298496E1,3.1622528E1,5.7849342E1,6.890859E1,1.01821556E2,4.134987E1,8.363793E1,1.092523E2,1.4715059E2,8.977565E1,1.3176811E2,1.3689722E2,1.993774E2,-3.337381E1,4.2766155E1,4.3653572E1,1.2405929E2,7.116015E1,1.5537733E2,2.0925528E2,3.2864288E2,1.6310027E2,2.4487868E2,2.5262154E2,3.479854E2,3.232932E2,4.6658328E2,5.491131E2,8.3851447E2,8.047357E1,2.1020432E2,2.0714265E2,3.742703E2,2.8057596E2,3.9734702E2,4.472907E2,6.3648425E2,5.2897797E2,7.3314215E2,5.820023E2,1.1040009E3,8.3379474E2,1.240002E3,1.1093744E3,1.6364359E3,2.4315572E2,5.0854373E2,6.4556537E2,8.8472784E2,7.154901E2,1.0323156E3,8.252531E2,1.1957634E3,9.7439865E1,7.49291E2,9.747091E2,1.3682441E3,9.95091E2,1.2301749E3,1.3945602E3,3.6153018E2],"split_indices":[8,0,0,8,8,3,2,6,2,3,3,2,2,0,3,6,3,3,3,3,2,2,2,2,3,0,3,3,7,0,7,3,3,2,2,2,3,2,3,0,2,2,3,2,3,3,3,7,7,7,0,3,2,0,2,2,3,3,2,3,8,2,4,0,0,0,0,0,0,0,0,0,0,0,0,0,0,0,0,0,0,0,0,0,0,0,0,0,0,0,0,0,0,0,0,0,0,0,0,0,0,0,0,0,0,0,0,0,0,0,0,0,0,0,0,0,0,0,0,0,0,0,0,0,0,0,0],"split_type":[0,0,0,0,0,0,0,0,0,0,0,0,0,0,0,0,0,0,0,0,0,0,0,0,0,0,0,0,0,0,0,0,0,0,0,0,0,0,0,0,0,0,0,0,0,0,0,0,0,0,0,0,0,0,0,0,0,0,0,0,0,0,0,0,0,0,0,0,0,0,0,0,0,0,0,0,0,0,0,0,0,0,0,0,0,0,0,0,0,0,0,0,0,0,0,0,0,0,0,0,0,0,0,0,0,0,0,0,0,0,0,0,0,0,0,0,0,0,0,0,0,0,0,0,0,0,0],"sum_hessian":[4.0904E4,2.837E4,1.2534E4,1.9236E4,9.134E3,9.038E3,3.496E3,1.4212E4,5.024E3,5.477E3,3.657E3,7.963E3,1.075E3,1.83E3,1.666E3,4.972E3,9.24E3,8.76E2,4.148E3,9.36E2,4.541E3,3.02E3,6.37E2,1.58E3,6.383E3,8.22E2,2.53E2,1.006E3,8.24E2,9.68E2,6.98E2,6.93E2,4.279E3,4.699E3,4.541E3,7.17E2,1.59E2,1.373E3,2.775E3,4.4E1,8.92E2,7.34E2,3.807E3,1.367E3,1.653E3,5.19E2,1.18E2,5.66E2,1.014E3,2.034E3,4.349E3,7.08E2,1.14E2,2.08E2,4.5E1,4.75E2,5.31E2,6.05E2,2.19E2,6.81E2,2.87E2,5.93E2,1.05E2,2.29E2,4.64E2,2.662E3,1.617E3,8.36E2,3.863E3,3.254E3,1.287E3,3.08E2,4.09E2,1.1E2,4.9E1,1.002E3,3.71E2,2.482E3,2.93E2,3.9E1,5E0,7.2E1,8.2E2,2.37E2,4.97E2,3.514E3,2.93E2,3.68E2,9.99E2,6.57E2,9.96E2,4.49E2,7E1,1.01E2,1.7E1,1.41E2,4.25E2,2.89E2,7.25E2,1.054E3,9.8E2,3.03E3,1.319E3,4.16E2,2.92E2,2.8E1,8.6E1,1.6E2,4.8E1,2.5E1,2E1,7.9E1,3.96E2,4.27E2,1.04E2,4.52E2,1.53E2,6.2E1,1.57E2,2.6E1,6.55E2,2.25E2,6.2E1,3.05E2,2.88E2,1.04E2,1E0],"tree_param":{"num_deleted":"0","num_feature":"9","num_nodes":"127","size_leaf_vector":"0"}},{"base_weights":[6.0247015E2,3.1028833E2,1.3896152E3,1.898796E2,6.25586E2,1.1829025E3,2.1437373E3,1.3502226E2,3.1461505E2,5.802021E2,9.245013E2,1.01803894E3,1.6608312E3,1.5957834E3,2.3387039E3,1.1692853E2,1.9541078E2,2.8847763E2,4.501897E2,4.878354E2,6.9136414E2,8.144385E2,1.496069E3,8.574225E2,1.3076127E3,1.4116154E3,2.1047832E3,1.4125254E3,2.5380063E3,1.8141433E3,2.6246157E3,6.599457E1,1.3675583E2,7.630301E1,2.0712315E2,2.4650629E2,3.556343E2,4.1873477E2,9.6955676E2,4.848627E2,4.2015796E3,5.195565E2,7.834485E2,6.5932434E2,1.0398778E3,1.0189788E3,1.9200195E3,7.461109E2,1.1094515E3,9.499217E2,1.5757028E3,1.1643054E3,1.6911947E3,1.8799481E3,3.302054E3,1.2192604E3,1.9051425E3,-4.4361572E2,2.6979202E3,1.6231184E3,2.856744E3,2.0982869E3,2.7908652E3,1.4345673E1,8.53102E1,3.353551E1,1.4772084E2,-1.2688254E0,1.1307293E2,1.9016881E2,3.082759E2,1.550097E2,2.696432E2,3.0175177E2,4.3610312E2,3.3818207E2,4.8747333E2,5.904071E2,1.261879E3,3.916027E2,5.8535156E2,3.9963422E2,6.183654E2,6.738338E2,9.682628E2,5.949077E2,8.405029E2,7.7039557E2,1.2392963E3,4.0692297E2,1.0780515E3,1.7419502E3,3.1881858E3,6.239195E2,9.32057E2,-2.7252396E2,1.1510419E3,7.1240656E2,1.1208169E3,1.2831345E3,1.9587274E3,1.00710016E3,1.8555521E3,1.3607539E3,1.9032333E3,1.6537566E3,2.6096145E3,1.3723292E3,3.4579229E3,5.214207E2,1.290361E3,2.7860443E2,1.9967518E3,-9.303206E2,3.2316895E1,3.1892036E3,1.7905254E3,1.2617383E3,1.8559293E3,2.1106306E3,3.433133E3,1.7167784E3,2.5799414E3,2.7205347E3,3.58058E3],"categories":[],"categories_nodes":[],"categories_segments":[],"categories_sizes":[],"default_left":[1,1,1,1,1,1,1,1,1,1,1,1,1,1,1,0,1,1,1,1,1,1,1,1,1,1,1,1,1,1,1,1,1,1,1,1,1,1,1,1,0,1,1,1,1,1,1,1,1,1,1,1,1,1,1,1,1,1,1,1,1,1,1,0,0,0,0,0,0,0,0,0,0,0,0,0,0,0,0,0,0,0,0,0,0,0,0,0,0,0,0,0,0,0,0,0,0,0,0,0,0,0,0,0,0,0,0,0,0,0,0,0,0,0,0,0,0,0,0,0,0,0,0,0,0],"id":5,"left_children":[1,3,5,7,9,11,13,15,17,19,21,23,25,27,29,31,33,35,37,39,41,43,45,47,49,51,53,55,57,59,61,63,65,67,69,71,73,75,77,79,-1,81,83,85,87,89,91,93,95,97,99,101,103,105,107,109,111,113,115,117,119,121,123,-1,-1,-1,-1,-1,-1,-1,-1,-1,-1,-1,-1,-1,-1,-1,-1,-1,-1,-1,-1,-1,-1,-1,-1,-1,-1,-1,-1,-1,-1,-1,-1,-1,-1,-1,-1,-1,-1,-1,-1,-1,-1,-1,-1,-1,-1,-1,-1,-1,-1,-1,-1,-1,-1,-1,-1,-1,-1,-1,-1,-1,-1],"loss_changes":[9.407289E9,1.132479E9,1.7235988E9,1.4769056E8,1.1130112E8,6.832568E8,2.5063629E8,1.636368E7,2.3236416E7,7.317914E7,6.703712E7,2.9961472E8,2.4353434E8,1.0485171E8,2.582999E8,1.164704E7,4.80544E6,1.5502336E7,1.6976208E7,4.117229E7,5.096307E7,3.1205952E7,3.3237216E7,1.1593165E8,2.195374E8,9.690496E7,2.0887398E8,4.794579E7,4.9353856E7,1.1924224E8,9.328384E7,3.22711E6,9.397008E6,8.872119E5,5.336688E6,7.17064E6,9.08208E6,5.39992E6,5.905008E6,3.6432384E7,0E0,1.3213792E7,4.213325E7,5.837264E6,1.892896E7,2.5984E6,1.4996128E7,6.508237E7,7.348173E7,3.9385856E7,1.4495898E8,8.0936E7,4.4284416E7,1.0708915E8,3.2852608E7,1.8280832E7,2.1347552E7,1.4198976E6,3.7085376E7,4.208064E7,3.360877E7,4.628723E7,3.79136E7,0E0,0E0,0E0,0E0,0E0,0E0,0E0,0E0,0E0,0E0,0E0,0E0,0E0,0E0,0E0,0E0,0E0,0E0,0E0,0E0,0E0,0E0,0E0,0E0,0E0,0E0,0E0,0E0,0E0,0E0,0E0,0E0,0E0,0E0,0E0,0E0,0E0,0E0,0E0,0E0,0E0,0E0,0E0,0E0,0E0,0E0,0E0,0E0,0E0,0E0,0E0,0E0,0E0,0E0,0E0,0E0,0E0,0E0,0E0,0E0,0E0,0E0],"parents":[2147483647,0,0,1,1,2,2,3,3,4,4,5,5,6,6,7,7,8,8,9,9,10,10,11,11,12,12,13,13,14,14,15,15,16,16,17,17,18,18,19,19,20,20,21,21,22,22,23,23,24,24,25,25,26,26,27,27,28,28,29,29,30,30,31,31,32,32,33,33,34,34,35,35,36,36,37,37,38,38,39,39,41,41,42,42,43,43,44,44,45,45,46,46,47,47,48,48,49,49,50,50,51,51,52,52,53,53,54,54,55,55,56,56,57,57,58,58,59,59,60,60,61,61,62,62],"right_children":[2,4,6,8,10,12,14,16,18,20,22,24,26,28,30,32,34,36,38,40,42,44,46,48,50,52,54,56,58,60,62,64,66,68,70,72,74,76,78,80,-1,82,84,86,88,90,92,94,96,98,100,102,104,106,108,110,112,114,116,118,120,122,124,-1,-1,-1,-1,-1,-1,-1,-1,-1,-1,-1,-1,-1,-1,-1,-1,-1,-1,-1,-1,-1,-1,-1,-1,-1,-1,-1,-1,-1,-1,-1,-1,-1,-1,-1,-1,-1,-1,-1,-1,-1,-1,-1,-1,-1,-1,-1,-1,-1,-1,-1,-1,-1,-1,-1,-1,-1,-1,-1,-1,-1,-1],"split_conditions":[6.435E0,5.725E0,7.355E0,5.105E0,5.5E0,3.5E0,1.5E0,4.755E0,5.5E0,2.5E0,3.5E0,3.5E0,3.5E0,8.005E0,1.5E0,3E0,1.5E0,3.5E0,5.5E0,1.61E0,7.55E-1,6.185E0,3.6550002E0,1.245E0,1.5E0,3E0,1.255E0,4.5E0,5E-1,1.995E0,4.525E0,2.645E0,1.5E0,5E-1,5.5E0,1.5E0,3.5E0,2.5E0,3.275E0,6.175E0,1.2604739E3,3E0,3.5E0,2.5E0,1.5E0,3.455E0,6.5E0,3E0,5E-1,4.045E0,4.125E0,4.5150003E0,2.5E0,5.5E0,5.975E1,5E-1,5.865E1,8.105E0,8.125E0,5E-1,5E-1,3.5E0,4.5E0,4.303702E0,2.5593061E1,1.0060654E1,4.4316254E1,-3.8064763E-1,3.392188E1,5.7050644E1,9.248277E1,4.6502914E1,8.089296E1,9.0525536E1,1.3083095E2,1.0145463E2,1.46242E2,1.7712213E2,3.7856372E2,1.1748081E2,1.7560547E2,1.1989027E2,1.8550963E2,2.0215015E2,2.9047885E2,1.7847232E2,2.521509E2,2.3111868E2,3.7178888E2,1.220769E2,3.2341547E2,5.225851E2,9.5645575E2,1.8717586E2,2.7961713E2,-8.175719E1,3.4531256E2,2.1372197E2,3.362451E2,3.8494037E2,5.876182E2,3.0213007E2,5.5666565E2,4.082262E2,5.7097003E2,4.9612698E2,7.828844E2,4.116988E2,1.037377E3,1.5642622E2,3.871083E2,8.358133E1,5.990256E2,-2.790962E2,9.695068E0,9.567611E2,5.3715765E2,3.7852148E2,5.567788E2,6.331892E2,1.02994E3,5.1503357E2,7.739825E2,8.1616046E2,1.0741741E3],"split_indices":[7,7,7,6,2,3,3,6,2,3,3,2,2,7,2,1,2,3,3,0,0,7,8,0,3,1,0,2,3,0,8,8,2,2,3,3,2,3,8,7,0,1,2,3,3,8,3,1,3,8,8,8,2,3,4,3,4,6,6,2,2,2,3,0,0,0,0,0,0,0,0,0,0,0,0,0,0,0,0,0,0,0,0,0,0,0,0,0,0,0,0,0,0,0,0,0,0,0,0,0,0,0,0,0,0,0,0,0,0,0,0,0,0,0,0,0,0,0,0,0,0,0,0,0,0],"split_type":[0,0,0,0,0,0,0,0,0,0,0,0,0,0,0,0,0,0,0,0,0,0,0,0,0,0,0,0,0,0,0,0,0,0,0,0,0,0,0,0,0,0,0,0,0,0,0,0,0,0,0,0,0,0,0,0,0,0,0,0,0,0,0,0,0,0,0,0,0,0,0,0,0,0,0,0,0,0,0,0,0,0,0,0,0,0,0,0,0,0,0,0,0,0,0,0,0,0,0,0,0,0,0,0,0,0,0,0,0,0,0,0,0,0,0,0,0,0,0,0,0,0,0,0,0],"sum_hessian":[4.0904E4,2.9832E4,1.1072E4,2.1589E4,8.243E3,8.692E3,2.38E3,1.4996E4,6.593E3,7.159E3,1.084E3,6.465E3,2.227E3,6.27E2,1.753E3,1.1541E4,3.455E3,5.53E3,1.063E3,3.913E3,3.246E3,9.11E2,1.73E2,4.161E3,2.304E3,1.429E3,7.98E2,5.27E2,1E2,6.21E2,1.132E3,3.235E3,8.306E3,3.1E2,3.145E3,3.406E3,2.124E3,1.004E3,5.9E1,3.911E3,2E0,1.135E3,2.111E3,5.42E2,3.69E2,8.3E1,9E1,2.889E3,1.272E3,9.89E2,1.315E3,7.61E2,6.68E2,6.74E2,1.24E2,3.81E2,1.46E2,5E0,9.5E1,5.27E2,9.4E1,2.75E2,8.57E2,8.81E2,2.354E3,7.98E2,7.508E3,1E2,2.1E2,2.696E3,4.49E2,6.89E2,2.717E3,1.275E3,8.49E2,4.65E2,5.39E2,2.7E1,3.2E1,2.031E3,1.88E3,5.15E2,6.2E2,1.328E3,7.83E2,4.03E2,1.39E2,1.59E2,2.1E2,8E0,7.5E1,8.1E1,9E0,1.746E3,1.143E3,3.7E1,1.235E3,4.16E2,5.73E2,7.48E2,5.67E2,6.22E2,1.39E2,2.64E2,4.04E2,5.17E2,1.57E2,1E1,1.14E2,3.6E1,3.45E2,8E0,1.38E2,2E0,3E0,6E1,3.5E1,2.09E2,3.18E2,4.3E1,5.1E1,1.56E2,1.19E2,7.91E2,6.6E1],"tree_param":{"num_deleted":"0","num_feature":"9","num_nodes":"125","size_leaf_vector":"0"}},{"base_weights":[4.2226147E2,2.2720009E2,1.0022131E3,1.306992E2,4.545516E2,8.358492E2,1.4649857E3,9.912336E1,2.323711E2,2.0009337E2,4.9568802E2,5.7272217E2,1.0273456E3,1.113528E3,1.6298539E3,7.0605316E1,1.2775825E2,2.0444841E2,3.4786035E2,4.820076E1,2.7634177E2,4.1246585E2,6.116012E2,2.1946967E2,6.538749E2,6.337414E2,1.1769015E3,8.7721985E2,1.4754224E3,1.2202488E3,1.7946978E3,6.204303E1,1.6620805E2,1.15547935E2,2.0105711E2,1.613319E2,2.6838562E2,2.575839E2,4.6058188E2,1.26373955E2,-1.569155E2,1.5313057E2,3.4877634E2,3.103093E2,4.8876938E2,5.0213174E2,7.6473114E2,1.1068884E2,4.4371573E2,3.8940115E2,7.5831744E2,6.98314E1,6.84527E2,9.98827E2,1.4943386E3,5.5399756E2,1.1030452E3,1.2902175E3,2.078003E3,1.0808572E3,2.1439622E3,1.673468E3,2.318309E3,-5.3743774E1,6.7835014E1,1.4698894E2,3.1142365E2,8.990156E1,1.4878993E2,1.8646901E2,4.1712463E2,5.7133785E1,1.7626704E2,1.1661523E2,2.952574E2,2.1958525E2,4.3806598E2,2.870695E2,5.778161E2,6.2685966E1,3.2777927E2,-7.558858E1,-3.4761682E2,-1.6624065E1,2.0169975E2,3.826045E2,2.2228405E1,2.089116E2,3.8871918E2,3.964323E2,6.310212E2,3.9160275E2,5.569169E2,6.4313446E2,1.079378E3,-7.850148E1,1.7824815E2,5.265315E2,9.895172E1,-3.386126E2,4.4976443E2,5.914161E2,9.455248E2,2.4834004E2,-2.0860278E2,3.7013147E2,7.645759E2,7.9419946E2,1.253396E3,1.4019934E3,2.2740881E3,2.1858415E2,7.366994E2,7.5109924E2,1.3028966E3,1.3232709E3,-6.932131E2,1.7938239E3,3.3827715E3,8.0197766E2,1.381152E3,1.5982048E3,2.6909033E3,1.5791631E3,2.6060703E3,2.4525437E3,1.6306831E3],"categories":[],"categories_nodes":[],"categories_segments":[],"categories_sizes":[],"default_left":[1,1,1,1,1,1,1,1,1,1,1,1,1,1,1,1,1,1,1,1,1,1,1,1,1,1,1,1,1,1,1,1,1,1,1,1,1,1,1,1,1,1,1,1,1,1,1,1,1,1,1,1,1,1,1,1,1,1,1,1,1,1,1,0,0,0,0,0,0,0,0,0,0,0,0,0,0,0,0,0,0,0,0,0,0,0,0,0,0,0,0,0,0,0,0,0,0,0,0,0,0,0,0,0,0,0,0,0,0,0,0,0,0,0,0,0,0,0,0,0,0,0,0,0,0,0,0],"id":6,"left_children":[1,3,5,7,9,11,13,15,17,19,21,23,25,27,29,31,33,35,37,39,41,43,45,47,49,51,53,55,57,59,61,63,65,67,69,71,73,75,77,79,81,83,85,87,89,91,93,95,97,99,101,103,105,107,109,111,113,115,117,119,121,123,125,-1,-1,-1,-1,-1,-1,-1,-1,-1,-1,-1,-1,-1,-1,-1,-1,-1,-1,-1,-1,-1,-1,-1,-1,-1,-1,-1,-1,-1,-1,-1,-1,-1,-1,-1,-1,-1,-1,-1,-1,-1,-1,-1,-1,-1,-1,-1,-1,-1,-1,-1,-1,-1,-1,-1,-1,-1,-1,-1,-1,-1,-1,-1,-1],"loss_changes":[4.6271985E9,6.7153434E8,7.913738E8,6.897117E7,9.537472E7,3.8110003E8,1.5585178E8,1.3383408E7,1.6349408E7,1.4706852E7,7.548275E7,9.139142E7,2.572631E8,7.327795E7,1.2272333E8,6.71758E6,7.299672E6,1.1267648E7,9.955704E6,6.850567E6,7.496936E6,3.5494464E7,5.4582144E7,1.4538298E7,7.141235E7,3.457613E7,1.7798195E8,3.807453E7,3.559795E7,6.6439424E7,7.971994E7,5.06359E6,1.838092E6,5.968016E6,3.600628E6,3.807324E6,6.698904E6,3.689464E6,8.764088E6,3.9430265E6,1.803804E6,2.6004795E6,5.868236E6,1.5486032E7,3.411123E7,1.1377856E7,5.153075E7,5.177747E6,5.515524E6,3.2539976E7,5.7556736E7,5.071798E6,2.7627264E7,1.0511552E8,7.882675E7,1.3320712E7,2.089616E7,1.8290464E7,2.322416E7,3.7918016E7,1.6295648E7,9.025408E7,1.861504E7,0E0,0E0,0E0,0E0,0E0,0E0,0E0,0E0,0E0,0E0,0E0,0E0,0E0,0E0,0E0,0E0,0E0,0E0,0E0,0E0,0E0,0E0,0E0,0E0,0E0,0E0,0E0,0E0,0E0,0E0,0E0,0E0,0E0,0E0,0E0,0E0,0E0,0E0,0E0,0E0,0E0,0E0,0E0,0E0,0E0,0E0,0E0,0E0,0E0,0E0,0E0,0E0,0E0,0E0,0E0,0E0,0E0,0E0,0E0,0E0,0E0,0E0,0E0,0E0],"parents":[2147483647,0,0,1,1,2,2,3,3,4,4,5,5,6,6,7,7,8,8,9,9,10,10,11,11,12,12,13,13,14,14,15,15,16,16,17,17,18,18,19,19,20,20,21,21,22,22,23,23,24,24,25,25,26,26,27,27,28,28,29,29,30,30,31,31,32,32,33,33,34,34,35,35,36,36,37,37,38,38,39,39,40,40,41,41,42,42,43,43,44,44,45,45,46,46,47,47,48,48,49,49,50,50,51,51,52,52,53,53,54,54,55,55,56,56,57,57,58,58,59,59,60,60,61,61,62,62],"right_children":[2,4,6,8,10,12,14,16,18,20,22,24,26,28,30,32,34,36,38,40,42,44,46,48,50,52,54,56,58,60,62,64,66,68,70,72,74,76,78,80,82,84,86,88,90,92,94,96,98,100,102,104,106,108,110,112,114,116,118,120,122,124,126,-1,-1,-1,-1,-1,-1,-1,-1,-1,-1,-1,-1,-1,-1,-1,-1,-1,-1,-1,-1,-1,-1,-1,-1,-1,-1,-1,-1,-1,-1,-1,-1,-1,-1,-1,-1,-1,-1,-1,-1,-1,-1,-1,-1,-1,-1,-1,-1,-1,-1,-1,-1,-1,-1,-1,-1,-1,-1,-1,-1,-1,-1,-1,-1],"split_conditions":[6.475E0,7.05E-1,7.315E0,5.185E0,1.5E0,2.5E0,1.5E0,4.5150003E0,4.5E0,5E-1,2.5E0,5E-1,1.5E0,4.685E0,1.5E0,6.5E0,5.5E0,4.5E0,3.5E0,9.8E-1,1.5E0,3.795E0,6.225E0,1.285E0,1.5E0,5E-1,6.825E0,2.5E0,3.5E0,2.005E0,4.7349997E0,1.5E0,4.5E0,4.5E0,5.5E0,5.995E1,1.5E0,6.5E0,3E0,6.135E0,6.4449997E0,1.5E0,6.415E0,1.5E0,4.5E0,1.5E0,4.5E0,6.095E1,6.345E1,5E-1,4.205E0,5.85E1,6.015E1,3E0,5.5E0,5E-1,6.105E1,6.25E1,4.9449997E0,1.5E0,3.5E0,4.5E0,6.295E1,-1.6123133E1,2.0350506E1,4.4096684E1,9.342709E1,2.6970469E1,4.4636982E1,5.5940704E1,1.251374E2,1.7140137E1,5.2880116E1,3.498457E1,8.857722E1,6.587558E1,1.314198E2,8.612085E1,1.7334483E2,1.880579E1,9.8333786E1,-2.2676575E1,-1.0428505E2,-4.98722E0,6.050993E1,1.1478135E2,6.668522E0,6.2673485E1,1.1661576E2,1.18929695E2,1.8930637E2,1.1748083E2,1.6707507E2,1.9294035E2,3.2381342E2,-2.3550446E1,5.347445E1,1.5795946E2,2.9685518E1,-1.01583786E2,1.3492934E2,1.7742484E2,2.8365744E2,7.4502014E1,-6.2580837E1,1.11039444E2,2.2937279E2,2.3825984E2,3.760188E2,4.2059805E2,6.8222644E2,6.557525E1,2.2100983E2,2.2532979E2,3.90869E2,3.969813E2,-2.0796393E2,5.3814716E2,1.0148315E3,2.405933E2,4.143456E2,4.7946146E2,8.0727106E2,4.7374893E2,7.818211E2,7.357631E2,4.8920496E2],"split_indices":[7,0,7,6,2,2,2,6,3,2,3,2,3,8,3,3,3,2,2,0,1,8,7,0,3,3,7,3,3,0,8,3,2,2,2,4,3,3,1,7,6,3,6,3,2,1,2,4,4,3,8,5,4,1,3,2,4,5,8,1,2,3,4,0,0,0,0,0,0,0,0,0,0,0,0,0,0,0,0,0,0,0,0,0,0,0,0,0,0,0,0,0,0,0,0,0,0,0,0,0,0,0,0,0,0,0,0,0,0,0,0,0,0,0,0,0,0,0,0,0,0,0,0,0,0,0,0],"split_type":[0,0,0,0,0,0,0,0,0,0,0,0,0,0,0,0,0,0,0,0,0,0,0,0,0,0,0,0,0,0,0,0,0,0,0,0,0,0,0,0,0,0,0,0,0,0,0,0,0,0,0,0,0,0,0,0,0,0,0,0,0,0,0,0,0,0,0,0,0,0,0,0,0,0,0,0,0,0,0,0,0,0,0,0,0,0,0,0,0,0,0,0,0,0,0,0,0,0,0,0,0,0,0,0,0,0,0,0,0,0,0,0,0,0,0,0,0,0,0,0,0,0,0,0,0,0,0],"sum_hessian":[4.0904E4,3.061E4,1.0294E4,2.149E4,9.12E3,7.574E3,2.72E3,1.6399E4,5.091E3,1.27E3,7.85E3,3.192E3,4.382E3,8.71E2,1.849E3,8.218E3,8.181E3,4.102E3,9.89E2,4.25E2,8.45E2,4.572E3,3.278E3,5.97E2,2.595E3,1.208E3,3.174E3,5.29E2,3.42E2,5.33E2,1.316E3,7.544E3,6.74E2,7.015E3,1.166E3,2.452E3,1.65E3,5.51E2,4.38E2,3.08E2,1.17E2,3.14E2,5.31E2,1.957E3,2.615E3,1.914E3,1.364E3,4.03E2,1.94E2,7.36E2,1.859E3,1E2,1.108E3,2.036E3,1.138E3,2.19E2,3.1E2,2.64E2,7.8E1,4.65E2,6.8E1,1.072E3,2.44E2,3.59E2,7.185E3,5.97E2,7.7E1,3.962E3,3.053E3,1.094E3,7.2E1,3.08E2,2.144E3,2.49E2,1.401E3,4.57E2,9.4E1,1.78E2,2.6E2,2.35E2,7.3E1,8.3E1,3.4E1,7E1,2.44E2,4.81E2,5E1,8.55E2,1.102E3,1.588E3,1.027E3,6.37E2,1.277E3,9.86E2,3.78E2,1.06E2,2.97E2,1.56E2,3.8E1,5.6E1,6.8E2,9.85E2,8.74E2,6.1E1,3.9E1,2.26E2,8.82E2,1.131E3,9.05E2,1.02E3,1.18E2,7.8E1,1.41E2,1.14E2,1.96E2,2.6E2,4E0,6.6E1,1.2E1,2.43E2,2.22E2,3.6E1,3.2E1,9.76E2,9.6E1,2.02E2,4.2E1],"tree_param":{"num_deleted":"0","num_feature":"9","num_nodes":"127","size_leaf_vector":"0"}},{"base_weights":[2.9588495E2,1.6524643E2,7.2969165E2,9.654163E1,3.411248E2,5.926032E2,1.0225746E3,6.4650925E1,1.5961305E2,2.8402408E2,4.809652E2,5.29134E2,1.0622645E3,8.8211163E2,1.3422798E3,2.5097054E1,7.995436E1,7.725224E1,1.8264772E2,2.2732793E2,4.0181372E2,3.6406406E2,5.974906E2,4.63057E2,8.482566E2,9.6843207E2,2.17184E3,7.2300146E2,1.2152455E3,1.1013378E3,1.598684E3,1.0510964E1,5.3674656E1,2.9102875E1,9.4361946E1,-1.8406683E1,9.3421524E1,1.700765E2,3.5378592E2,-9.1974266E1,2.4209372E2,3.5349973E2,6.7713696E2,2.0250984E2,3.988852E2,5.353429E2,1.162436E3,3.7363016E2,6.125664E2,5.7722815E2,1.082803E3,8.57018E2,1.5424176E3,9.2249054E2,2.2704375E3,6.010985E2,1.2763597E3,1.1340773E3,1.8712944E3,9.267148E2,1.5192936E3,1.3349951E3,1.864716E3,-2.509387E0,4.3362446E1,2.407342E1,1.01079445E2,-5.6436054E1,3.8624584E1,4.031489E1,1.0999011E2,-5.7384518E1,2.0723276E1,5.947864E1,1.3451503E2,8.656416E1,1.8343083E2,2.4342589E2,4.8113922E2,2.6137564E1,-1.7970653E2,1.8479599E2,3.1361322E2,2.1052867E2,4.2548468E2,5.4846576E2,9.852716E2,1.25232864E2,2.9920508E2,2.873094E2,4.4836914E2,2.2787451E2,5.881771E2,7.735966E2,1.8218611E3,5.8902737E1,4.132338E2,5.0346933E2,7.333561E2,4.4066165E2,8.5944073E2,7.684645E2,1.2302262E3,7.5587335E2,1.3571497E3,1.1161561E3,2.1951938E3,1.0474563E3,1.4883105E2,2.0210813E3,3.4516006E3,1.7460338E2,7.3037537E2,1.1602365E3,2.5205847E3,7.8456384E2,1.2934312E3,-8.2533105E2,1.9202104E3,1.0751492E3,7.4141925E2,9.718327E2,1.7012039E3,1.3718508E3,-1.0534587E3,1.5678793E3,2.33791E3],"categories":[],"categories_nodes":[],"categories_segments":[],"categories_sizes":[],"default_left":[1,1,1,1,1,1,1,0,1,1,1,1,1,1,1,1,1,1,1,0,1,1,1,1,1,1,1,1,1,1,1,1,0,1,1,1,1,1,1,1,1,1,1,1,1,1,1,1,1,1,0,1,1,1,1,1,1,1,1,1,1,1,1,0,0,0,0,0,0,0,0,0,0,0,0,0,0,0,0,0,0,0,0,0,0,0,0,0,0,0,0,0,0,0,0,0,0,0,0,0,0,0,0,0,0,0,0,0,0,0,0,0,0,0,0,0,0,0,0,0,0,0,0,0,0,0,0],"id":7,"left_children":[1,3,5,7,9,11,13,15,17,19,21,23,25,27,29,31,33,35,37,39,41,43,45,47,49,51,53,55,57,59,61,63,65,67,69,71,73,75,77,79,81,83,85,87,89,91,93,95,97,99,101,103,105,107,109,111,113,115,117,119,121,123,125,-1,-1,-1,-1,-1,-1,-1,-1,-1,-1,-1,-1,-1,-1,-1,-1,-1,-1,-1,-1,-1,-1,-1,-1,-1,-1,-1,-1,-1,-1,-1,-1,-1,-1,-1,-1,-1,-1,-1,-1,-1,-1,-1,-1,-1,-1,-1,-1,-1,-1,-1,-1,-1,-1,-1,-1,-1,-1,-1,-1,-1,-1,-1,-1],"loss_changes":[2.3180416E9,3.798661E8,3.7950208E8,4.5465264E7,7.037888E7,1.9173632E8,1.342999E8,9.088544E6,1.4389088E7,4.180109E7,3.464096E7,1.194848E8,7.775238E7,1.1037888E8,5.501376E7,1.746393E6,7.930352E6,2.570849E6,1.2702016E7,1.9998672E7,2.6856736E7,7.119872E6,4.431859E7,6.2771136E7,6.129088E7,4.401869E7,5.17328E6,9.522266E7,3.392832E7,3.3405696E7,2.8587008E7,1.187509E6,1.9845552E6,1.9504084E6,7.121928E6,3.687627E5,1.974055E6,6.149248E6,5.575036E6,1.952794E6,1.6538544E7,1.776664E7,1.147296E7,1.673691E6,5.679504E6,1.86288E7,3.0898352E7,3.6757984E7,2.2850112E7,1.71188E7,2.3198144E7,2.91232E7,2.927072E7,4.241915E5,8.928672E6,6.4271296E7,3.4063296E7,3.2681408E7,1.1214128E7,8.526784E6,1.2189568E7,2.1339552E7,2.6955072E7,0E0,0E0,0E0,0E0,0E0,0E0,0E0,0E0,0E0,0E0,0E0,0E0,0E0,0E0,0E0,0E0,0E0,0E0,0E0,0E0,0E0,0E0,0E0,0E0,0E0,0E0,0E0,0E0,0E0,0E0,0E0,0E0,0E0,0E0,0E0,0E0,0E0,0E0,0E0,0E0,0E0,0E0,0E0,0E0,0E0,0E0,0E0,0E0,0E0,0E0,0E0,0E0,0E0,0E0,0E0,0E0,0E0,0E0,0E0,0E0,0E0,0E0,0E0,0E0],"parents":[2147483647,0,0,1,1,2,2,3,3,4,4,5,5,6,6,7,7,8,8,9,9,10,10,11,11,12,12,13,13,14,14,15,15,16,16,17,17,18,18,19,19,20,20,21,21,22,22,23,23,24,24,25,25,26,26,27,27,28,28,29,29,30,30,31,31,32,32,33,33,34,34,35,35,36,36,37,37,38,38,39,39,40,40,41,41,42,42,43,43,44,44,45,45,46,46,47,47,48,48,49,49,50,50,51,51,52,52,53,53,54,54,55,55,56,56,57,57,58,58,59,59,60,60,61,61,62,62],"right_children":[2,4,6,8,10,12,14,16,18,20,22,24,26,28,30,32,34,36,38,40,42,44,46,48,50,52,54,56,58,60,62,64,66,68,70,72,74,76,78,80,82,84,86,88,90,92,94,96,98,100,102,104,106,108,110,112,114,116,118,120,122,124,126,-1,-1,-1,-1,-1,-1,-1,-1,-1,-1,-1,-1,-1,-1,-1,-1,-1,-1,-1,-1,-1,-1,-1,-1,-1,-1,-1,-1,-1,-1,-1,-1,-1,-1,-1,-1,-1,-1,-1,-1,-1,-1,-1,-1,-1,-1,-1,-1,-1,-1,-1,-1,-1,-1,-1,-1,-1,-1,-1,-1,-1,-1,-1,-1],"split_conditions":[1.035E0,5.775E0,4.505E0,5.05E-1,3E0,4.5E0,3E0,3E0,2.5E0,4.5E0,8.95E-1,4.5E0,5.5E0,1.695E0,2.5E0,6.305E1,2.5E0,5E-1,5.5E0,5E-1,3.5E0,1.5E0,5.5E0,3E0,1.5E0,6.5E0,6.525E0,4.5E0,4.5E0,3.5E0,2.5E0,2.9050002E0,1.5E0,5E-1,2.5E0,6.85E-1,6.95E-1,1.5E0,5.335E0,6.205E0,2.5E0,3.8049998E0,3.9850001E0,4.5E0,2.5E0,1.5E0,2.5E0,5E-1,2.5E0,4.215E0,3E0,1.295E0,4.1949997E0,1.05E0,6.5E0,1.5E0,3.5E0,1.5E0,4.585E0,5.67E1,7.395E0,8.105E0,3.5E0,-7.5281614E-1,1.3008735E1,7.2220263E0,3.0323835E1,-1.6930817E1,1.1587376E1,1.2094468E1,3.2997036E1,-1.7215357E1,6.2169833E0,1.7843594E1,4.035451E1,2.596925E1,5.502925E1,7.302777E1,1.4434177E2,7.8412695E0,-5.391196E1,5.54388E1,9.408397E1,6.3158604E1,1.2764541E2,1.6453973E2,2.9558148E2,3.7569862E1,8.976153E1,8.619282E1,1.3451074E2,6.836236E1,1.7645314E2,2.32079E2,5.4655835E2,1.7670822E1,1.23970146E2,1.510408E2,2.2000684E2,1.321985E2,2.5783224E2,2.3053935E2,3.6906787E2,2.2676201E2,4.0714493E2,3.3484686E2,6.5855817E2,3.142369E2,4.464932E1,6.063244E2,1.0354802E3,5.2381016E1,2.1911263E2,3.4807095E2,7.561754E2,2.3536916E2,3.8802936E2,-2.4759932E2,5.760632E2,3.2254477E2,2.2242578E2,2.9154984E2,5.1036118E2,4.1155527E2,-3.1603763E2,4.703638E2,7.01373E2],"split_indices":[0,7,8,0,1,3,1,1,2,2,0,2,2,0,2,4,2,2,3,1,3,3,2,1,3,3,7,2,2,3,3,8,1,2,3,0,0,3,6,6,3,8,8,2,2,2,3,2,3,8,1,0,8,0,3,3,3,3,8,5,7,6,2,0,0,0,0,0,0,0,0,0,0,0,0,0,0,0,0,0,0,0,0,0,0,0,0,0,0,0,0,0,0,0,0,0,0,0,0,0,0,0,0,0,0,0,0,0,0,0,0,0,0,0,0,0,0,0,0,0,0,0,0,0,0,0,0],"split_type":[0,0,0,0,0,0,0,0,0,0,0,0,0,0,0,0,0,0,0,0,0,0,0,0,0,0,0,0,0,0,0,0,0,0,0,0,0,0,0,0,0,0,0,0,0,0,0,0,0,0,0,0,0,0,0,0,0,0,0,0,0,0,0,0,0,0,0,0,0,0,0,0,0,0,0,0,0,0,0,0,0,0,0,0,0,0,0,0,0,0,0,0,0,0,0,0,0,0,0,0,0,0,0,0,0,0,0,0,0,0,0,0,0,0,0,0,0,0,0,0,0,0,0,0,0,0,0],"sum_hessian":[4.0904E4,3.1438E4,9.466E3,2.2608E4,8.83E3,6.45E3,3.016E3,1.5017E4,7.591E3,6.272E3,2.558E3,5.684E3,7.66E2,2.098E3,9.18E2,4.19E3,1.0827E4,1.66E3,5.931E3,4.236E3,2.036E3,1.279E3,1.279E3,4.711E3,9.73E2,7.08E2,5.8E1,1.422E3,6.76E2,4.76E2,4.42E2,2.775E3,1.415E3,2.391E3,8.436E3,2.4E2,1.42E3,5.527E3,4.04E2,1.87E2,4.049E3,1.734E3,3.02E2,2.28E2,1.051E3,1.154E3,1.25E2,2.95E3,1.761E3,4.53E2,5.2E2,5.95E2,1.13E2,5E0,5.3E1,1.167E3,2.55E2,6.04E2,7.2E1,3.38E2,1.38E2,2.25E2,2.17E2,1.988E3,7.87E2,8.72E2,5.43E2,2.39E2,2.152E3,1.893E3,6.543E3,1.2E2,1.2E2,7.79E2,6.41E2,7.63E2,4.764E3,2.18E2,1.86E2,8E1,1.07E2,2.25E3,1.799E3,5.82E2,1.152E3,2.15E2,8.7E1,1.28E2,1E2,3.25E2,7.26E2,1.7E2,9.84E2,8E1,4.5E1,3.3E2,2.62E3,9.28E2,8.33E2,3.07E2,1.46E2,1.68E2,3.52E2,4.97E2,9.8E1,7E1,4.3E1,4E0,1E0,4.6E1,7E0,2.72E2,8.95E2,2.35E2,2E1,1.91E2,4.13E2,1E0,7.1E1,1.85E2,1.53E2,3.6E1,1.02E2,2.22E2,3E0,1.36E2,8.1E1],"tree_param":{"num_deleted":"0","num_feature":"9","num_nodes":"127","size_leaf_vector":"0"}},{"base_weights":[2.0742828E2,1.0413337E2,4.8416342E2,5.947566E1,2.0833472E2,3.603349E2,6.7236505E2,3.778816E1,9.248236E1,6.2272892E1,2.3212534E2,2.6478342E2,5.14178E2,5.0830487E2,8.5071075E2,2.6716757E1,7.9408875E1,3.8854435E1,1.1549347E2,1.02807076E2,-2.3200964E2,2.205098E2,5.254183E2,2.2951222E2,5.9954565E2,3.8813095E2,7.447205E2,4.5536792E2,9.6718066E2,7.418901E2,1.2241794E3,9.147981E0,5.1762566E1,1.5987445E1,1.00286224E2,-4.6058907E1,5.0318798E1,1.0088868E2,1.8630148E2,4.593794E0,1.5005945E2,-1.23057144E2,-4.8833987E2,-2.51714E2,2.2662581E2,4.788664E2,1.2502954E3,8.621601E1,2.849002E2,4.961447E2,1.7537638E3,1.9146684E2,4.6706628E2,6.791064E2,1.3712584E3,1.9763625E2,5.31447E2,5.261478E2,1.1451873E3,7.119045E2,1.9857058E3,9.590348E2,1.673233E3,8.8337494E2,8.6975565E0,-3.4230522E1,6.1536907E1,-2.6257324E1,3.97875E1,9.251603E1,2.1541516E2,-1.232277E2,-1.6907375E1,4.6066807E1,2.3507784E2,7.638488E1,1.3185837E2,1.7734302E2,8.445449E2,-7.9100395E1,7.003482E1,7.8579155E1,2.0592389E2,-3.288756E2,2.9176285E1,-7.4586444E2,-3.479783E2,-2.8396317E2,-4.4846592E1,2.0441151E2,3.4646216E2,2.2303903E2,5.6806506E2,5.816929E2,1.7799761E3,-3.7196585E2,1.2351988E2,1.9265462E2,3.5118738E2,3.214073E2,6.40136E2,1.277197E3,2.2752642E3,1.2371136E1,2.7253946E2,4.137547E2,6.8685815E2,5.915243E2,9.677797E2,1.1128127E3,1.7645336E3,1.4312703E2,6.652745E2,-4.338788E2,5.5468024E2,7.063282E2,-6.2556714E2,6.283134E2,1.3651211E3,6.393726E2,1.1393038E3,2.615856E3,9.557584E2,2.2825851E2,1.0733947E3,1.5431545E3,2.604183E3],"categories":[],"categories_nodes":[],"categories_segments":[],"categories_sizes":[],"default_left":[1,1,1,1,1,1,1,1,0,1,1,1,1,1,1,1,1,1,1,1,1,1,1,1,1,1,1,1,1,1,1,1,1,1,1,1,1,1,1,1,1,1,1,1,1,1,1,1,1,1,1,1,1,1,1,1,1,1,1,1,1,1,1,0,0,0,0,0,0,0,0,0,0,0,0,0,0,0,0,0,0,0,0,0,0,0,0,0,0,0,0,0,0,0,0,0,0,0,0,0,0,0,0,0,0,0,0,0,0,0,0,0,0,0,0,0,0,0,0,0,0,0,0,0,0,0,0],"id":8,"left_children":[1,3,5,7,9,11,13,15,17,19,21,23,25,27,29,31,33,35,37,39,41,43,45,47,49,51,53,55,57,59,61,63,65,67,69,71,73,75,77,79,81,83,85,87,89,91,93,95,97,99,101,103,105,107,109,111,113,115,117,119,121,123,125,-1,-1,-1,-1,-1,-1,-1,-1,-1,-1,-1,-1,-1,-1,-1,-1,-1,-1,-1,-1,-1,-1,-1,-1,-1,-1,-1,-1,-1,-1,-1,-1,-1,-1,-1,-1,-1,-1,-1,-1,-1,-1,-1,-1,-1,-1,-1,-1,-1,-1,-1,-1,-1,-1,-1,-1,-1,-1,-1,-1,-1,-1,-1,-1],"loss_changes":[1.1692324E9,1.3860291E8,2.5885978E8,1.492376E7,3.103728E7,9.847104E7,1.2863104E8,5.797502E6,1.0198544E7,1.4970267E7,2.6061632E7,4.874525E7,7.436403E7,5.542995E7,8.492582E7,4.3746875E6,3.49924E6,2.4204355E6,5.96368E6,5.113483E6,4.1849345E6,2.140896E7,9.254648E6,2.9714976E7,4.615269E7,2.5726544E7,3.6355296E7,4.036589E7,1.8003568E7,5.967808E7,5.4950784E7,2.29392E6,3.44742E6,6.606053E5,1.759378E6,6.637948E5,1.7088355E6,3.631012E6,5.67632E6,1.9717948E6,2.954764E6,3.3935E6,1.36705E6,6.21038E5,1.9359712E7,6.171472E6,4.985082E6,1.7924132E7,1.645424E7,8.927568E6,5.046992E6,6.937072E6,1.3612736E7,2.0235136E7,6.675824E6,1.1936344E7,3.596787E7,1.4968004E7,1.8240192E7,4.890259E7,2.2162672E7,2.4910048E7,1.7173216E7,0E0,0E0,0E0,0E0,0E0,0E0,0E0,0E0,0E0,0E0,0E0,0E0,0E0,0E0,0E0,0E0,0E0,0E0,0E0,0E0,0E0,0E0,0E0,0E0,0E0,0E0,0E0,0E0,0E0,0E0,0E0,0E0,0E0,0E0,0E0,0E0,0E0,0E0,0E0,0E0,0E0,0E0,0E0,0E0,0E0,0E0,0E0,0E0,0E0,0E0,0E0,0E0,0E0,0E0,0E0,0E0,0E0,0E0,0E0,0E0,0E0,0E0,0E0,0E0],"parents":[2147483647,0,0,1,1,2,2,3,3,4,4,5,5,6,6,7,7,8,8,9,9,10,10,11,11,12,12,13,13,14,14,15,15,16,16,17,17,18,18,19,19,20,20,21,21,22,22,23,23,24,24,25,25,26,26,27,27,28,28,29,29,30,30,31,31,32,32,33,33,34,34,35,35,36,36,37,37,38,38,39,39,40,40,41,41,42,42,43,43,44,44,45,45,46,46,47,47,48,48,49,49,50,50,51,51,52,52,53,53,54,54,55,55,56,56,57,57,58,58,59,59,60,60,61,61,62,62],"right_children":[2,4,6,8,10,12,14,16,18,20,22,24,26,28,30,32,34,36,38,40,42,44,46,48,50,52,54,56,58,60,62,64,66,68,70,72,74,76,78,80,82,84,86,88,90,92,94,96,98,100,102,104,106,108,110,112,114,116,118,120,122,124,126,-1,-1,-1,-1,-1,-1,-1,-1,-1,-1,-1,-1,-1,-1,-1,-1,-1,-1,-1,-1,-1,-1,-1,-1,-1,-1,-1,-1,-1,-1,-1,-1,-1,-1,-1,-1,-1,-1,-1,-1,-1,-1,-1,-1,-1,-1,-1,-1,-1,-1,-1,-1,-1,-1,-1,-1,-1,-1,-1,-1,-1,-1,-1,-1],"split_conditions":[3.9850001E0,3.505E0,1.275E0,4.8050003E0,1.5E0,3E0,2.5E0,5.5E0,3E0,6.435E0,5.5E0,5.5E0,3.5E0,7.885E0,3.5E0,4.5E0,2.5E0,5.895E1,5.5E0,5E-1,6.575E0,5E-1,5.5E0,1.5E0,4.5E0,1.5E0,5.5E0,5E-1,1.5E0,8.075E0,3.5E0,5.625E1,2.85E-1,1.5E0,5.5E0,5.755E1,6.5E0,3.5E0,6.5E0,2.5E0,5.825E0,6.4799995E0,3.855E0,6.4849997E0,5.5E0,5.725E0,8.8E-1,5E-1,2.5E0,1.5E0,6.5E0,5E-1,6.855E0,5.5E0,6.5E0,4.5E0,5E-1,6.15E1,5E-1,5.5E0,8.12E0,6.055E1,5.5E0,2.6501248E2,2.609267E0,-1.0269157E1,1.8461073E1,-7.8771977E0,1.193625E1,2.775481E1,6.462455E1,-3.696831E1,-5.0722127E0,1.3820043E1,7.052335E1,2.2915464E1,3.955751E1,5.3202908E1,2.5336348E2,-2.373012E1,2.1010447E1,2.3573748E1,6.177717E1,-9.866269E1,8.752886E0,-2.2375934E2,-1.0439349E2,-8.518895E1,-1.3453979E1,6.1323456E1,1.0393865E2,6.691171E1,1.7041953E2,1.7450787E2,5.3399286E2,-1.1158976E2,3.7055965E1,5.7796387E1,1.0535622E2,9.642219E1,1.920408E2,3.8315912E2,6.825793E2,3.711341E0,8.176184E1,1.2412641E2,2.0605745E2,1.7745729E2,2.9033392E2,3.3384384E2,5.293601E2,4.293811E1,1.9958235E2,-1.3016365E2,1.6640408E2,2.1189847E2,-1.8767015E2,1.8849403E2,4.0953635E2,1.918118E2,3.4179117E2,7.8475684E2,2.8672754E2,6.8477554E1,3.220184E2,4.6294638E2,7.8125494E2],"split_indices":[8,8,0,6,2,1,2,3,1,6,3,2,2,7,3,2,2,4,2,2,6,3,2,3,3,2,3,2,3,7,2,4,0,2,2,4,3,3,3,3,7,7,8,7,2,6,0,3,2,3,3,2,7,2,3,3,3,5,2,2,6,4,3,0,0,0,0,0,0,0,0,0,0,0,0,0,0,0,0,0,0,0,0,0,0,0,0,0,0,0,0,0,0,0,0,0,0,0,0,0,0,0,0,0,0,0,0,0,0,0,0,0,0,0,0,0,0,0,0,0,0,0,0,0,0,0,0],"split_type":[0,0,0,0,0,0,0,0,0,0,0,0,0,0,0,0,0,0,0,0,0,0,0,0,0,0,0,0,0,0,0,0,0,0,0,0,0,0,0,0,0,0,0,0,0,0,0,0,0,0,0,0,0,0,0,0,0,0,0,0,0,0,0,0,0,0,0,0,0,0,0,0,0,0,0,0,0,0,0,0,0,0,0,0,0,0,0,0,0,0,0,0,0,0,0,0,0,0,0,0,0,0,0,0,0,0,0,0,0,0,0,0,0,0,0,0,0,0,0,0,0,0,0,0,0,0,0],"sum_hessian":[4.0904E4,2.9787E4,1.1117E4,2.0852E4,8.935E3,6.707E3,4.41E3,1.2585E4,8.267E3,1.252E3,7.683E3,4.139E3,2.568E3,2.299E3,2.111E3,9.942E3,2.643E3,2.483E3,5.784E3,1.101E3,1.51E2,7.392E3,2.91E2,3.746E3,3.93E2,1.662E3,9.06E2,2.063E3,2.36E2,1.637E3,4.74E2,5.844E3,4.098E3,6.55E2,1.988E3,2.95E2,2.188E3,4.797E3,9.87E2,3.58E2,7.43E2,1.07E2,4.4E1,9.4E1,7.298E3,2.75E2,1.6E1,1.045E3,2.701E3,3.62E2,3.1E1,4.77E2,1.185E3,8.22E2,8.4E1,4.71E2,1.592E3,6.9E1,1.67E2,1.6E3,3.7E1,3E2,1.74E2,2E0,5.842E3,4.18E2,3.68E3,2.36E2,4.19E2,1.864E3,1.24E2,8E1,2.15E2,2.14E3,4.8E1,2.68E3,2.117E3,9.75E2,1.2E1,1.57E2,2.01E2,3.27E2,4.16E2,4.5E1,6.2E1,1.4E1,3E1,8.1E1,1.3E1,6.159E3,1.139E3,7.2E1,2.03E2,8E0,8E0,7.8E1,9.67E2,1.131E3,1.57E3,1.65E2,1.97E2,1.8E1,1.3E1,1.49E2,3.28E2,9.56E2,2.29E2,6.33E2,1.89E2,5.3E1,3.1E1,4.23E2,4.8E1,3.7E1,1.555E3,6E1,9E0,5.1E1,1.16E2,1.37E3,2.3E2,2.2E1,1.5E1,4.1E1,2.59E2,1.55E2,1.9E1],"tree_param":{"num_deleted":"0","num_feature":"9","num_nodes":"127","size_leaf_vector":"0"}},{"base_weights":[1.454147E2,8.333361E1,3.812388E2,4.7953644E1,1.791372E2,3.2198734E2,6.058666E2,3.3180317E1,8.6836586E1,2.1906696E1,2.0994727E2,2.947389E2,8.755953E2,9.002846E1,6.715568E2,-3.976529E1,3.853678E1,4.958832E1,1.3147751E2,-2.6098776E2,3.403833E1,9.247998E1,2.5336041E2,1.191301E2,3.553561E2,7.6274695E2,1.5743124E3,-5.557175E2,2.1034334E2,5.307615E2,8.5988995E2,6.003027E2,-4.0823627E1,3.0716242E1,8.291008E1,-2.4027501E2,5.320987E1,1.14388374E2,2.2534778E2,-7.038497E2,-2.1598235E2,7.612338E1,-6.613948E1,-2.49721E1,1.330364E2,1.7601726E2,3.3594754E2,-1.0465492E2,1.8312524E2,-2.5557062E2,3.7235205E2,5.67306E2,1.2931075E3,-3.488042E2,1.6284058E3,-7.883935E2,3.878955E2,-7.98619E1,3.1151572E2,2.8065536E2,6.092388E2,-3.2802832E2,8.9117444E2,-1.7417859E2,-3.6444263E1,2.5562578E1,9.1987755E1,8.006626E1,4.00178E2,-1.8580319E2,-5.542959E2,1.0182366E0,7.095225E1,1.4211629E2,6.489236E1,1.809048E2,5.0944E2,6.988222E1,-2.5241234E2,6.571759E1,4.363506E2,-4.5619865E1,-4.231591E2,5.2655903E1,-1.3958826E2,-1.24299164E2,1.4525673E2,2.1242046E2,9.847119E1,2.3126506E2,4.0229013E2,-4.4427243E2,-7.753701E1,7.0003654E1,2.5579807E2,-2.0694655E2,-8.863002E2,3.9533314E1,4.032245E2,4.6287685E1,6.2749994E2,1.3378806E3,-1.9755696E2,1.7893593E3,8.3942523E2,-9.885864E2,-3.6922607E2,8.6865234E1,4.9093457E2,-1.9460965E2,4.0075238E2,1.4582104E2,5.1898895E2,2.0863625E2,8.044643E2,5.2905005E2,8.770805E2,-5.150059E2,3.9365864E1,8.291343E2,1.3679077E3],"categories":[],"categories_nodes":[],"categories_segments":[],"categories_sizes":[],"default_left":[1,1,1,1,0,1,1,1,1,1,1,1,1,1,1,1,1,1,1,1,1,1,1,1,1,1,1,1,1,1,1,0,1,1,1,1,1,1,1,0,1,1,1,1,1,0,1,1,1,1,1,1,1,0,1,1,1,1,1,1,1,1,1,0,0,0,0,0,0,0,0,0,0,0,0,0,0,0,0,0,0,0,0,0,0,0,0,0,0,0,0,0,0,0,0,0,0,0,0,0,0,0,0,0,0,0,0,0,0,0,0,0,0,0,0,0,0,0,0,0,0],"id":9,"left_children":[1,3,5,7,9,11,13,15,17,19,21,23,25,27,29,31,33,35,37,39,41,43,45,47,49,51,53,55,57,59,61,-1,63,65,67,69,71,73,75,-1,77,79,81,83,85,87,89,91,93,95,97,99,101,-1,103,105,107,109,111,113,115,117,119,-1,-1,-1,-1,-1,-1,-1,-1,-1,-1,-1,-1,-1,-1,-1,-1,-1,-1,-1,-1,-1,-1,-1,-1,-1,-1,-1,-1,-1,-1,-1,-1,-1,-1,-1,-1,-1,-1,-1,-1,-1,-1,-1,-1,-1,-1,-1,-1,-1,-1,-1,-1,-1,-1,-1,-1,-1,-1],"loss_changes":[5.988263E8,1.097511E8,1.1325542E8,1.35824E7,4.230051E7,1.0152019E8,6.018797E7,6.698654E6,1.0819952E7,4.9234675E6,3.721405E7,6.842579E7,2.3715488E7,1.5810847E7,4.1360064E7,8.191054E5,5.538722E6,3.740464E6,4.72414E6,1.02392025E6,5.7978025E6,9.39682E6,3.3992896E7,2.3677708E7,4.97376E7,2.7667664E7,5.041192E6,7.331608E6,5.0455675E6,1.7592032E7,2.5303328E7,0E0,6.781119E5,4.284894E6,2.126147E6,6.496425E5,3.248348E6,3.431442E6,5.652624E6,0E0,5.904115E5,3.5998245E6,2.9623382E6,4.518344E6,4.628216E6,7.75624E6,1.7804E7,3.3547298E6,1.0545904E7,3.803506E6,4.7782976E7,6.306108E6,5.136448E6,0E0,3.831512E6,1.816761E6,1.7448E5,2.559714E6,4.290227E6,8.056048E6,1.4312768E7,1.2567742E6,1.8268064E7,0E0,0E0,0E0,0E0,0E0,0E0,0E0,0E0,0E0,0E0,0E0,0E0,0E0,0E0,0E0,0E0,0E0,0E0,0E0,0E0,0E0,0E0,0E0,0E0,0E0,0E0,0E0,0E0,0E0,0E0,0E0,0E0,0E0,0E0,0E0,0E0,0E0,0E0,0E0,0E0,0E0,0E0,0E0,0E0,0E0,0E0,0E0,0E0,0E0,0E0,0E0,0E0,0E0,0E0,0E0,0E0,0E0,0E0],"parents":[2147483647,0,0,1,1,2,2,3,3,4,4,5,5,6,6,7,7,8,8,9,9,10,10,11,11,12,12,13,13,14,14,15,15,16,16,17,17,18,18,19,19,20,20,21,21,22,22,23,23,24,24,25,25,26,26,27,27,28,28,29,29,30,30,32,32,33,33,34,34,35,35,36,36,37,37,38,38,40,40,41,41,42,42,43,43,44,44,45,45,46,46,47,47,48,48,49,49,50,50,51,51,52,52,54,54,55,55,56,56,57,57,58,58,59,59,60,60,61,61,62,62],"right_children":[2,4,6,8,10,12,14,16,18,20,22,24,26,28,30,32,34,36,38,40,42,44,46,48,50,52,54,56,58,60,62,-1,64,66,68,70,72,74,76,-1,78,80,82,84,86,88,90,92,94,96,98,100,102,-1,104,106,108,110,112,114,116,118,120,-1,-1,-1,-1,-1,-1,-1,-1,-1,-1,-1,-1,-1,-1,-1,-1,-1,-1,-1,-1,-1,-1,-1,-1,-1,-1,-1,-1,-1,-1,-1,-1,-1,-1,-1,-1,-1,-1,-1,-1,-1,-1,-1,-1,-1,-1,-1,-1,-1,-1,-1,-1,-1,-1,-1,-1,-1,-1],"split_conditions":[1.065E0,5.8450003E0,7.435E0,5.3499997E-1,1.5E0,5.5E0,5.945E1,1.5E0,3E0,5.735E1,1.5E0,1.5E0,4.5E0,5.795E1,2.5E0,5.605E1,5.5E0,5E-1,5.5E0,5.565E1,6.395E1,2.5E0,3.5E0,1.5E0,5E-1,1.3199999E0,5.88E1,3.5E0,1.5E0,5E-1,5E-1,1.800908E2,5E-1,6.5E0,6.5E0,7.4E-1,2.5E0,6.195E1,4.5E0,-2.111549E2,5.85E1,5.5E0,4.5E0,6.4449997E0,5E-1,8.000001E0,9.15E-1,5E-1,5E-1,7.395E0,5.995E1,1.5E0,6.39E1,-1.04641266E2,6.19E1,3.5E0,5.74E1,1.73E0,7.5950003E0,4.965E0,3.5E0,5.85E1,7.955E0,-5.225358E1,-1.0933279E1,7.6687737E0,2.7596327E1,2.401988E1,1.20053406E2,-5.574096E1,-1.6628877E2,3.05471E-1,2.1285675E1,4.2634888E1,1.9467709E1,5.4271442E1,1.52832E2,2.0964666E1,-7.57237E1,1.9715279E1,1.3090518E2,-1.368596E1,-1.2694773E2,1.5796771E1,-4.187648E1,-3.728975E1,4.357702E1,6.372614E1,2.9541359E1,6.9379524E1,1.2068704E2,-1.3328174E2,-2.3261105E1,2.1001097E1,7.6739426E1,-6.2083965E1,-2.6589008E2,1.1859995E1,1.20967354E2,1.3886306E1,1.8824998E2,4.013642E2,-5.926709E1,5.368078E2,2.5182758E2,-2.9657593E2,-1.1076783E2,2.6059572E1,1.4728038E2,-5.8382896E1,1.20225716E2,4.3746315E1,1.5569669E2,6.2590878E1,2.413393E2,1.5871503E2,2.6312418E2,-1.5450179E2,1.1809759E1,2.487403E2,4.1037234E2],"split_indices":[0,7,7,0,1,3,4,3,1,4,3,2,2,4,2,4,2,3,2,4,4,2,2,3,3,0,4,3,2,2,3,0,3,3,3,0,2,4,3,0,5,3,3,6,3,1,0,3,2,6,4,2,4,0,4,2,4,0,7,8,3,5,7,0,0,0,0,0,0,0,0,0,0,0,0,0,0,0,0,0,0,0,0,0,0,0,0,0,0,0,0,0,0,0,0,0,0,0,0,0,0,0,0,0,0,0,0,0,0,0,0,0,0,0,0,0,0,0,0,0,0],"split_type":[0,0,0,0,0,0,0,0,0,0,0,0,0,0,0,0,0,0,0,0,0,0,0,0,0,0,0,0,0,0,0,0,0,0,0,0,0,0,0,0,0,0,0,0,0,0,0,0,0,0,0,0,0,0,0,0,0,0,0,0,0,0,0,0,0,0,0,0,0,0,0,0,0,0,0,0,0,0,0,0,0,0,0,0,0,0,0,0,0,0,0,0,0,0,0,0,0,0,0,0,0,0,0,0,0,0,0,0,0,0,0,0,0,0,0,0,0,0,0,0,0],"sum_hessian":[4.0904E4,3.2381E4,8.523E3,2.3649E4,8.732E3,6.746E3,1.777E3,1.7139E4,6.51E3,1.431E3,7.301E3,6.431E3,3.15E2,2.01E2,1.576E3,1.172E3,1.5967E4,3.55E3,2.96E3,5.8E1,1.373E3,1.971E3,5.33E3,1.651E3,4.78E3,2.73E2,4.2E1,3.1E1,1.7E2,9.04E2,6.72E2,1E0,1.171E3,1.3576E4,2.391E3,4.3E1,3.507E3,2.506E3,4.54E2,4E0,5.4E1,9.67E2,4.06E2,5.06E2,1.465E3,2.754E3,2.576E3,3.67E2,1.284E3,1.29E2,4.651E3,2.01E2,7.2E1,1E0,4.1E1,2.5E1,6E0,4.4E1,1.26E2,2.17E2,6.87E2,1.7E1,6.55E2,3.6E1,1.135E3,1.2524E4,1.052E3,2.371E3,2E1,3.8E1,5E0,8.9E2,2.617E3,1.605E3,9.01E2,3.94E2,6E1,6E0,4.8E1,9.41E2,2.6E1,3.85E2,2.1E1,3.02E2,2.04E2,6.6E1,1.399E3,1.873E3,8.81E2,1.001E3,1.575E3,2.6E1,3.41E2,5.03E2,7.81E2,1.21E2,8E0,3.95E2,4.256E3,2.1E1,1.8E2,7E1,2E0,3.3E1,8E0,1.6E1,9E0,2E0,4E0,3.6E1,8E0,7.1E1,5.5E1,1.92E2,2.5E1,5.31E2,1.56E2,1.1E1,6E0,5.82E2,7.3E1],"tree_param":{"num_deleted":"0","num_feature":"9","num_nodes":"121","size_leaf_vector":"0"}},{"base_weights":[1.0185425E2,6.492608E1,3.0819904E2,3.690808E1,1.4438222E2,2.3171463E2,4.6157416E2,1.5470532E1,5.6323513E1,1.0083594E2,2.4920645E2,1.8328587E2,4.9665137E2,3.8138535E2,6.9970624E2,-3.3824764E1,2.152435E1,-6.689906E1,6.340463E1,7.88639E1,2.536664E2,1.4476704E2,3.6481262E2,1.5927037E2,6.5654285E2,2.7509296E2,6.6389044E2,3.0020718E2,5.767688E2,4.1764127E2,8.432216E2,-6.483141E1,-1.3046788E1,3.8155382E0,3.932401E1,-3.7784084E1,-1.4207027E2,4.470642E1,9.698751E1,-1.4033952E2,8.681293E1,2.2919691E2,1.4429338E3,2.647476E2,9.7491776E1,2.7026086E2,7.8220233E2,6.1794224E1,2.628533E2,2.4663019E2,8.978435E2,2.412654E2,1.7627607E3,7.105274E2,-9.3398705E1,-1.4814226E2,3.1778827E2,4.6512573E2,8.060046E2,3.556564E2,1.8721793E3,6.249446E2,1.144134E3,-7.991979E1,-1.0833342E1,-4.5020416E1,8.14125E0,-2.0320034E1,1.8089817E1,-1.5294065E1,4.646518E1,-4.557742E1,2.0585318E1,-6.441681E2,-1.2880748E2,1.9824257E0,5.571725E1,7.0197586E1,1.759023E2,-1.13486664E2,-1.1434214E3,2.1192749E1,1.1259467E2,1.6275722E2,4.3601233E2,6.474871E2,1.745638E3,1.7975672E1,2.941409E2,5.0586796E1,1.9003815E2,-2.8632229E1,2.8914517E2,8.9863025E2,4.5561584E2,1.1814801E2,-9.157773E1,2.335051E2,5.7101874E2,1.9444713E3,1.0103292E2,9.9014246E2,-2.069503E2,-3.2541922E2,2.9491666E2,1.9134703E3,5.0460645E2,6.591457E2,1.3116372E3,-5.136748E2,5.7074176E2,1.7418314E2,-4.4908273E2,2.4690579E2,4.4389844E2,6.098603E2,2.2155542E2,6.7301117E2,1.2629181E3,1.8413725E2,5.4395996E2,2.0644685E3,3.5922217E2,5.6360614E2,2.2443813E3,9.5796985E2,1.4162466E3],"categories":[],"categories_nodes":[],"categories_segments":[],"categories_sizes":[],"default_left":[1,1,1,1,1,1,1,1,1,1,1,1,1,1,1,1,1,1,1,1,1,1,1,1,1,1,1,1,1,1,1,1,1,1,1,1,1,1,1,1,1,1,1,1,1,1,1,1,1,1,1,1,1,1,1,1,1,1,1,1,1,1,1,0,0,0,0,0,0,0,0,0,0,0,0,0,0,0,0,0,0,0,0,0,0,0,0,0,0,0,0,0,0,0,0,0,0,0,0,0,0,0,0,0,0,0,0,0,0,0,0,0,0,0,0,0,0,0,0,0,0,0,0,0,0,0,0],"id":10,"left_children":[1,3,5,7,9,11,13,15,17,19,21,23,25,27,29,31,33,35,37,39,41,43,45,47,49,51,53,55,57,59,61,63,65,67,69,71,73,75,77,79,81,83,85,87,89,91,93,95,97,99,101,103,105,107,109,111,113,115,117,119,121,123,125,-1,-1,-1,-1,-1,-1,-1,-1,-1,-1,-1,-1,-1,-1,-1,-1,-1,-1,-1,-1,-1,-1,-1,-1,-1,-1,-1,-1,-1,-1,-1,-1,-1,-1,-1,-1,-1,-1,-1,-1,-1,-1,-1,-1,-1,-1,-1,-1,-1,-1,-1,-1,-1,-1,-1,-1,-1,-1,-1,-1,-1,-1,-1,-1],"loss_changes":[3.116734E8,7.723723E7,7.272954E7,1.06764E7,4.126261E7,5.3091616E7,3.916544E7,3.639421E6,1.1749688E7,2.1444312E7,3.1991168E7,3.9742896E7,2.3531424E7,2.4363616E7,2.0657312E7,8.585909E5,3.4230395E6,1.5966932E6,7.989336E6,9.752504E6,2.3037184E7,7.89246E6,4.947496E7,3.368708E7,1.6494728E7,1.3514504E7,1.2922E7,8.678384E6,1.1218544E7,1.5292346E7,2.1813984E7,4.3502225E5,5.4233325E5,1.8762675E6,2.113151E6,2.4157631E5,1.2755072E6,3.847509E6,9.611132E6,5.149617E6,9.124892E6,1.0756748E7,2.722282E6,2.85257E6,4.344295E6,5.810704E6,8.41208E6,1.4885576E7,1.4500032E7,1.5624412E7,1.1013872E7,8.365683E6,1.72148E5,9.729344E6,6.4338675E6,4.1522542E6,9.312104E6,1.0687564E7,8.08272E6,5.422738E6,1.294872E6,1.8701144E7,5.887312E6,0E0,0E0,0E0,0E0,0E0,0E0,0E0,0E0,0E0,0E0,0E0,0E0,0E0,0E0,0E0,0E0,0E0,0E0,0E0,0E0,0E0,0E0,0E0,0E0,0E0,0E0,0E0,0E0,0E0,0E0,0E0,0E0,0E0,0E0,0E0,0E0,0E0,0E0,0E0,0E0,0E0,0E0,0E0,0E0,0E0,0E0,0E0,0E0,0E0,0E0,0E0,0E0,0E0,0E0,0E0,0E0,0E0,0E0,0E0,0E0,0E0,0E0,0E0,0E0],"parents":[2147483647,0,0,1,1,2,2,3,3,4,4,5,5,6,6,7,7,8,8,9,9,10,10,11,11,12,12,13,13,14,14,15,15,16,16,17,17,18,18,19,19,20,20,21,21,22,22,23,23,24,24,25,25,26,26,27,27,28,28,29,29,30,30,31,31,32,32,33,33,34,34,35,35,36,36,37,37,38,38,39,39,40,40,41,41,42,42,43,43,44,44,45,45,46,46,47,47,48,48,49,49,50,50,51,51,52,52,53,53,54,54,55,55,56,56,57,57,58,58,59,59,60,60,61,61,62,62],"right_children":[2,4,6,8,10,12,14,16,18,20,22,24,26,28,30,32,34,36,38,40,42,44,46,48,50,52,54,56,58,60,62,64,66,68,70,72,74,76,78,80,82,84,86,88,90,92,94,96,98,100,102,104,106,108,110,112,114,116,118,120,122,124,126,-1,-1,-1,-1,-1,-1,-1,-1,-1,-1,-1,-1,-1,-1,-1,-1,-1,-1,-1,-1,-1,-1,-1,-1,-1,-1,-1,-1,-1,-1,-1,-1,-1,-1,-1,-1,-1,-1,-1,-1,-1,-1,-1,-1,-1,-1,-1,-1,-1,-1,-1,-1,-1,-1,-1,-1,-1,-1,-1,-1,-1,-1,-1,-1],"split_conditions":[4.185E0,3.7849998E0,3E0,4.785E0,3E0,4.5E0,3.5E0,4.245E0,5.915E1,5.5E0,2.5E0,4.935E0,1.5E0,7.425E0,6.935E0,4.5E0,3.5E0,6.0150003E0,3.5E0,5.875E1,6.5E0,6.415E0,4.5E0,2.5E0,1.5E0,4.995E0,6.15E1,6.045E1,3.5E0,6.5E0,2.5E0,2.9500002E-1,2.45E-1,3.5E0,1.5E0,5.9049997E0,5.56E1,2.5E0,4.5E0,7.1949997E0,1.5E0,2.5E0,6.365E0,6.175E0,6.615E0,5E-1,6.205E1,6.285E1,4.725E0,6.085E1,6.15E1,5E-1,8.08E0,7.58E0,2.5E0,1.3199999E0,3.5E0,6.195E1,1.705E0,4.5E0,1.255E0,8.015E0,4.5E0,-2.3975939E1,-3.2500026E0,-1.3506125E1,2.442375E0,-6.0960107E0,5.426945E0,-4.5882196E0,1.3939554E1,-1.3673226E1,6.1755958E0,-1.9325044E2,-3.8642246E1,5.9472775E-1,1.6715176E1,2.1059277E1,5.277069E1,-3.4046E1,-3.4302643E2,6.357825E0,3.3778404E1,4.8827168E1,1.3080371E2,1.9424614E2,5.236914E2,5.3927016E0,8.824227E1,1.517604E1,5.7011448E1,-8.589669E0,8.674355E1,2.6958908E2,1.3668475E2,3.5444405E1,-2.747332E1,7.005153E1,1.7130563E2,5.8334143E2,3.0309877E1,2.9704276E2,-6.2085094E1,-9.762577E1,8.8475E1,5.7404114E2,1.5138194E2,1.9774371E2,3.9349118E2,-1.5410245E2,1.7122253E2,5.2254944E1,-1.3472482E2,7.407174E1,1.3316954E2,1.829581E2,6.646663E1,2.0190337E2,3.7887543E2,5.5241177E1,1.6318799E2,6.193406E2,1.07766655E2,1.6908185E2,6.7331445E2,2.8739096E2,4.24874E2],"split_indices":[8,8,1,6,1,2,2,6,4,2,3,8,3,7,7,3,3,7,3,4,3,6,2,3,3,8,5,4,3,3,3,0,0,2,2,7,4,2,2,7,3,3,6,7,7,2,4,4,8,4,5,3,7,7,3,0,3,4,0,2,0,7,2,0,0,0,0,0,0,0,0,0,0,0,0,0,0,0,0,0,0,0,0,0,0,0,0,0,0,0,0,0,0,0,0,0,0,0,0,0,0,0,0,0,0,0,0,0,0,0,0,0,0,0,0,0,0,0,0,0,0,0,0,0,0,0,0],"split_type":[0,0,0,0,0,0,0,0,0,0,0,0,0,0,0,0,0,0,0,0,0,0,0,0,0,0,0,0,0,0,0,0,0,0,0,0,0,0,0,0,0,0,0,0,0,0,0,0,0,0,0,0,0,0,0,0,0,0,0,0,0,0,0,0,0,0,0,0,0,0,0,0,0,0,0,0,0,0,0,0,0,0,0,0,0,0,0,0,0,0,0,0,0,0,0,0,0,0,0,0,0,0,0,0,0,0,0,0,0,0,0,0,0,0,0,0,0,0,0,0,0,0,0,0,0,0,0],"sum_hessian":[4.0904E4,3.4696E4,6.208E3,2.5652E4,9.044E3,4.144E3,2.064E3,1.2192E4,1.346E4,6.391E3,2.653E3,3.505E3,6.39E2,1.546E3,5.18E2,1.333E3,1.0859E4,7.31E2,1.2729E4,5.589E3,8.02E2,1.395E3,1.258E3,3.337E3,1.68E2,2.76E2,3.63E2,1.094E3,4.52E2,1.76E2,3.42E2,5.34E2,7.99E2,5.444E3,5.415E3,5.28E2,2.03E2,8.178E3,4.551E3,1.95E2,5.394E3,7.87E2,1.5E1,3.93E2,1.002E3,1.027E3,2.31E2,1.72E3,1.617E3,6.3E1,1.05E2,2.71E2,5E0,3.42E2,2.1E1,4.1E1,1.053E3,3.06E2,1.46E2,1.7E2,6E0,2E2,1.42E2,4.17E2,1.17E2,3.18E2,4.81E2,2.023E3,3.421E3,6.26E2,4.789E3,4.66E2,6.2E1,4E0,1.99E2,1.676E3,6.502E3,3.399E3,1.152E3,1.91E2,4E0,1.522E3,3.872E3,5.97E2,1.9E2,5E0,1E1,4.2E1,3.51E2,6.66E2,3.36E2,6.1E1,9.66E2,1.69E2,6.2E1,1.258E3,4.62E2,1.478E3,1.39E2,4E0,5.9E1,9.7E1,8E0,2.3E1,2.48E2,4E0,1E0,3.17E2,2.5E1,1.3E1,8E0,2E1,2.1E1,6.76E2,3.77E2,1.91E2,1.15E2,1.15E2,3.1E1,9E1,8E1,5E0,1E0,1.94E2,6E0,8.7E1,5.5E1],"tree_param":{"num_deleted":"0","num_feature":"9","num_nodes":"127","size_leaf_vector":"0"}},{"base_weights":[7.146691E1,4.7414623E1,2.2899666E2,2.3296772E1,1.0042312E2,7.249402E1,2.8429987E2,-2.6878685E1,2.8316887E1,9.3707306E1,5.503432E2,-3.3168613E1,1.9741914E2,2.2268497E2,4.7725284E2,-1.4571126E2,-2.2135057E1,1.8821447E1,6.139638E1,6.2459667E1,1.644389E2,4.5186887E2,1.1301056E3,-6.365189E1,5.0890436E2,2.1187505E2,-1.1586605E3,-7.320177E1,2.5360265E2,3.966904E2,7.7516724E2,5.0754376E2,-1.5953029E2,-1.8141108E1,-1.067759E2,-4.079694E0,2.733927E1,3.0774633E1,1.03004486E2,-4.6659912E1,8.0444E1,1.2107025E2,3.0599243E2,1.9594547E2,5.991955E2,5.669271E2,1.3410632E3,-7.527889E1,1.3480112E3,6.2814734E2,-2.1304067E3,1.7914282E2,8.3125757E2,9.544824E2,-1.6699315E3,2.0170366E3,-8.751283E1,2.2859166E2,6.1357275E2,3.311676E2,8.2845013E2,7.9920935E2,-1.1100709E3,-1.3429308E2,-4.1795493E2,-4.7363007E1,-3.4953318E0,-1.3476477E2,-3.9828637E-1,-1.5227643E1,1.8890528E1,1.4545047E1,4.938957E1,2.7331327E1,2.155254E2,1.3361902E2,4.6842117E1,-2.7667517E1,-2.8882346E2,-7.2228603E0,1.0315439E2,8.514553E1,2.1235228E2,1.9718777E2,4.9204755E2,3.0323013E2,-2.4125328E2,4.716443E2,8.226253E2,4.7528882E2,1.5042966E3,-1.3932408E2,1.2913829E2,4.094756E2,1.4538232E3,1.7358583E3,2.96974E2,2.0254933E2,-1.00806177E3,1.6156003E2,1.2249982E3,-2.9078564E2,1.7793745E1,2.0554495E2,6.398874E2,5.0628E2,1.3513632E3,2.534369E2,6.460894E2,6.508341E2,1.6014324E3,7.175659E2,1.5103684E3,-1.9876904E2,-1.4663374E3],"categories":[],"categories_nodes":[],"categories_segments":[],"categories_sizes":[],"default_left":[1,1,1,1,1,1,1,1,1,1,1,1,1,1,1,1,1,0,1,1,1,0,1,1,1,1,1,1,1,1,1,0,1,1,1,1,1,1,1,1,0,1,1,1,1,0,1,1,0,1,0,1,1,0,0,0,1,1,1,1,1,1,1,0,0,0,0,0,0,0,0,0,0,0,0,0,0,0,0,0,0,0,0,0,0,0,0,0,0,0,0,0,0,0,0,0,0,0,0,0,0,0,0,0,0,0,0,0,0,0,0,0,0,0,0],"id":11,"left_children":[1,3,5,7,9,11,13,15,17,19,21,23,25,27,29,31,33,35,37,39,41,43,45,47,49,51,53,55,57,59,61,-1,63,65,67,69,71,73,75,77,79,81,83,85,87,-1,89,91,93,95,-1,97,99,-1,-1,-1,101,103,105,107,109,111,113,-1,-1,-1,-1,-1,-1,-1,-1,-1,-1,-1,-1,-1,-1,-1,-1,-1,-1,-1,-1,-1,-1,-1,-1,-1,-1,-1,-1,-1,-1,-1,-1,-1,-1,-1,-1,-1,-1,-1,-1,-1,-1,-1,-1,-1,-1,-1,-1,-1,-1,-1,-1],"loss_changes":[1.5497618E8,4.536733E7,4.687267E7,6.144777E6,3.3478888E7,1.8697632E7,4.748451E7,1.2476195E6,6.963794E6,2.4158208E7,8.795284E6,1.2722948E7,1.2968062E7,2.7792304E7,2.2925184E7,8.482934E5,7.198024E5,3.3611295E6,6.297318E6,1.4890844E7,2.052856E7,5.198902E6,1.972272E6,1.2050445E7,1.4241698E7,1.2887112E7,9.156639E6,8.791614E6,2.4609568E7,2.1339288E7,1.0178832E7,0E0,4.9171275E5,8.7290844E5,2.8577575E5,1.1966508E6,3.542382E6,1.807147E6,3.597572E6,4.9316205E6,1.2967792E7,8.396556E6,1.5794256E7,2.5591055E6,2.1484E6,0E0,1.546198E6,9.483461E6,5.45E2,1.4158268E7,0E0,1.7210632E7,8.240078E6,0E0,0E0,0E0,6.148687E6,2.424848E7,1.3406232E7,1.6114856E7,1.2687136E7,1.0702688E7,6.8253675E5,0E0,0E0,0E0,0E0,0E0,0E0,0E0,0E0,0E0,0E0,0E0,0E0,0E0,0E0,0E0,0E0,0E0,0E0,0E0,0E0,0E0,0E0,0E0,0E0,0E0,0E0,0E0,0E0,0E0,0E0,0E0,0E0,0E0,0E0,0E0,0E0,0E0,0E0,0E0,0E0,0E0,0E0,0E0,0E0,0E0,0E0,0E0,0E0,0E0,0E0,0E0,0E0],"parents":[2147483647,0,0,1,1,2,2,3,3,4,4,5,5,6,6,7,7,8,8,9,9,10,10,11,11,12,12,13,13,14,14,15,15,16,16,17,17,18,18,19,19,20,20,21,21,22,22,23,23,24,24,25,25,26,26,27,27,28,28,29,29,30,30,32,32,33,33,34,34,35,35,36,36,37,37,38,38,39,39,40,40,41,41,42,42,43,43,44,44,46,46,47,47,48,48,49,49,51,51,52,52,56,56,57,57,58,58,59,59,60,60,61,61,62,62],"right_children":[2,4,6,8,10,12,14,16,18,20,22,24,26,28,30,32,34,36,38,40,42,44,46,48,50,52,54,56,58,60,62,-1,64,66,68,70,72,74,76,78,80,82,84,86,88,-1,90,92,94,96,-1,98,100,-1,-1,-1,102,104,106,108,110,112,114,-1,-1,-1,-1,-1,-1,-1,-1,-1,-1,-1,-1,-1,-1,-1,-1,-1,-1,-1,-1,-1,-1,-1,-1,-1,-1,-1,-1,-1,-1,-1,-1,-1,-1,-1,-1,-1,-1,-1,-1,-1,-1,-1,-1,-1,-1,-1,-1,-1,-1,-1,-1],"split_conditions":[1.215E0,5.925E0,1.5E0,1.5E0,6.5E0,1.5E0,3.5E0,5E-1,5.335E0,3E0,5.5E0,4.955E0,8.135E0,6.005E1,4.605E0,5.66E1,5.875E0,3E0,3E0,1.5E0,4.5E0,3E0,1.5E0,8.145E0,6.435E1,8.005E0,5E-1,6.52E0,7.865E0,4.5E0,2.005E0,1.5226314E2,7.4E-1,4.815E0,5.9449997E0,6.305E1,4.5E0,6.5E0,6.195E1,6.15E1,1.5E0,3.5E0,2.5E0,4.5E0,1.085E0,1.7007814E2,5.55E1,4.5E0,2.000001E0,7.975E0,-6.391221E2,7.955E0,1.5E0,2.8634473E2,-5.0097946E2,6.05111E2,5.915E1,5.5E0,2.5E0,5.5E0,7.24E0,7.7650003E0,4.5E0,-4.0287926E1,-1.2538648E2,-1.4208902E1,-1.0485996E0,-4.0429432E1,-1.19485915E-1,-4.568293E0,5.6671586E0,4.3635144E0,1.4816871E1,8.199399E0,6.465762E1,4.008571E1,1.4052636E1,-8.300256E0,-8.664704E1,-2.1668582E0,3.0946318E1,2.5543661E1,6.3705685E1,5.9156334E1,1.4761427E2,9.096904E1,-7.2375984E1,1.4149329E2,2.467876E2,1.4258665E2,4.51289E2,-4.1797226E1,3.874149E1,1.2284268E2,4.36147E2,5.207575E2,8.90922E1,6.07648E1,-3.0241855E2,4.846801E1,3.6749945E2,-8.7235695E1,5.338124E0,6.1663486E1,1.9196622E2,1.51884E2,4.0540897E2,7.6031075E1,1.9382683E2,1.9525024E2,4.8042972E2,2.1526979E2,4.5311053E2,-5.9630714E1,-4.3990125E2],"split_indices":[0,7,3,3,3,1,2,3,6,1,2,8,6,4,8,4,6,1,1,2,2,1,1,7,4,7,2,6,6,3,0,0,0,6,6,4,2,3,4,5,1,3,3,2,0,0,5,2,1,6,0,6,2,0,0,0,4,3,2,2,6,7,2,0,0,0,0,0,0,0,0,0,0,0,0,0,0,0,0,0,0,0,0,0,0,0,0,0,0,0,0,0,0,0,0,0,0,0,0,0,0,0,0,0,0,0,0,0,0,0,0,0,0,0,0],"split_type":[0,0,0,0,0,0,0,0,0,0,0,0,0,0,0,0,0,0,0,0,0,0,0,0,0,0,0,0,0,0,0,0,0,0,0,0,0,0,0,0,0,0,0,0,0,0,0,0,0,0,0,0,0,0,0,0,0,0,0,0,0,0,0,0,0,0,0,0,0,0,0,0,0,0,0,0,0,0,0,0,0,0,0,0,0,0,0,0,0,0,0,0,0,0,0,0,0,0,0,0,0,0,0,0,0,0,0,0,0,0,0,0,0,0,0],"sum_hessian":[4.0904E4,3.5487E4,5.417E3,2.4391E4,1.1096E4,1.415E3,4.002E3,2.218E3,2.2173E4,1.0934E4,1.62E2,7.67E2,6.48E2,3.035E3,9.67E2,8.4E1,2.134E3,1.7229E4,4.944E3,7.585E3,3.349E3,1.4E2,2.2E1,7.27E2,4E1,6.42E2,6E0,2.87E2,2.748E3,7.63E2,2.04E2,1E0,8.3E1,2.039E3,9.5E1,4.671E3,1.2558E4,2.849E3,2.095E3,1.073E3,6.512E3,2.565E3,7.84E2,5.2E1,8.8E1,7E0,1.5E1,7.22E2,5E0,3.9E1,1E0,6.11E2,3.1E1,1E0,5E0,1E0,2.86E2,2.571E3,1.77E2,6.64E2,9.9E1,2.02E2,2E0,7.7E1,6E0,6.8E2,1.359E3,7.5E1,2E1,3.145E3,1.526E3,7.948E3,4.61E3,2.798E3,5.1E1,1.355E3,7.4E2,9.96E2,7.7E1,1.34E3,5.172E3,1.842E3,7.23E2,4.96E2,2.88E2,4.2E1,1E1,5.8E1,3E1,3E0,1.2E1,5.5E2,1.72E2,1E0,4E0,8E0,3.1E1,6E2,1.1E1,1.2E1,1.9E1,9.7E1,1.89E2,2.436E3,1.35E2,1.56E2,2.1E1,5.34E2,1.3E2,8.2E1,1.7E1,1.83E2,1.9E1,1E0,1E0],"tree_param":{"num_deleted":"0","num_feature":"9","num_nodes":"115","size_leaf_vector":"0"}},{"base_weights":[5.0134758E1,3.1087923E1,1.5113101E2,1.1974055E1,5.9821808E1,-4.8026176E1,1.777911E2,8.759367E0,6.468162E1,5.1988426E1,2.287394E2,-1.20568375E2,1.9533215E1,-2.8619717E2,1.8947531E2,-6.514467E1,1.0641614E1,5.4087395E1,4.1214014E2,3.9671593E1,1.403583E2,1.7400674E2,4.271226E2,-1.7102449E2,1.9276386E1,-6.7103477E0,8.642603E2,-3.400585E2,7.754699E1,1.4556049E2,2.7926196E2,-1.0451142E2,-5.0997402E1,-1.5862013E1,1.5661604E1,2.490701E1,1.1208125E2,2.9187683E2,1.2712115E3,-1.7215747E2,4.342472E1,8.0457405E1,2.6057028E2,1.0725617E2,3.285497E2,2.9265094E2,6.6924084E2,-1.8164655E2,5.860647E2,-1.8900479E2,1.26280685E2,-1.5552466E2,6.4882454E1,-7.5139404E1,1.1857424E3,-6.110651E2,-2.4994937E2,-2.2986888E2,5.289774E2,-8.0337317E2,1.511169E2,-1.9611456E2,2.9490588E2,-9.596289E1,-2.9390298E2,-7.167695E1,-3.0605776E1,-9.7575865E0,-4.2963047E1,2.5409925E-1,2.503952E1,-8.094122E0,4.0260094E1,-6.286451E0,1.317686E2,-2.444836E2,3.772313E2,1.453608E3,3.62011E2,-3.5882635E2,-1.562634E2,-1.86381E1,5.5268044E1,3.4180073E1,1.3118726E2,-3.330069E2,2.7836734E2,9.138723E1,6.736736E2,3.556045E2,-6.954482E1,1.5389879E2,5.6006384E2,7.7740845E2,-1.8144466E2,-1.6421155E2,-8.1075476E2,7.4376434E2,5.648291E1,4.550348E2,-2.6600974E2,1.9740926E2,-2.4730846E2,-1.3076207E2,-4.629093E2,1.362023E2,-2.915705E2,-2.7924268E2,8.5975914E1,7.015381E0,-7.0642426E2,-1.6568155E2,-5.965423E2,1.739261E2,-3.2802048E2,6.665318E2,-2.1695166E2,-1.0819927E3,-2.8070132E2,1.2754723E2,3.2399216E2,-4.6909354E2,2.8430887E2,1.6149995E2,3.634061E2],"categories":[],"categories_nodes":[],"categories_segments":[],"categories_sizes":[],"default_left":[1,1,1,1,1,1,1,1,1,1,1,1,1,1,1,1,1,1,1,1,1,1,1,1,1,1,1,1,1,1,1,1,1,1,1,1,1,1,1,1,1,1,1,1,1,1,1,1,1,1,1,1,1,1,0,1,1,1,1,1,1,1,1,0,0,0,0,0,0,0,0,0,0,0,0,0,0,0,0,0,0,0,0,0,0,0,0,0,0,0,0,0,0,0,0,0,0,0,0,0,0,0,0,0,0,0,0,0,0,0,0,0,0,0,0,0,0,0,0,0,0,0,0,0,0],"id":12,"left_children":[1,3,5,7,9,11,13,15,17,19,21,23,25,27,29,31,33,35,37,39,41,43,45,47,49,51,53,55,57,59,61,63,65,67,69,71,73,75,77,79,81,83,85,87,89,91,93,95,97,99,101,103,105,107,-1,109,111,113,115,117,119,121,123,-1,-1,-1,-1,-1,-1,-1,-1,-1,-1,-1,-1,-1,-1,-1,-1,-1,-1,-1,-1,-1,-1,-1,-1,-1,-1,-1,-1,-1,-1,-1,-1,-1,-1,-1,-1,-1,-1,-1,-1,-1,-1,-1,-1,-1,-1,-1,-1,-1,-1,-1,-1,-1,-1,-1,-1,-1,-1,-1,-1,-1,-1],"loss_changes":[7.868256E7,1.8901092E7,3.4467536E7,3.501555E6,1.8179408E7,3.7613505E6,3.1085936E7,2.7107485E6,4.350798E6,1.4296492E7,6.53822E6,2.614025E6,8.828922E6,2.788806E6,2.1976864E7,2.6422512E5,2.5280265E6,1.950103E6,3.24498E6,9.17726E6,1.155073E7,4.906045E6,4.06925E6,2.2938375E6,2.230279E6,4.1332018E6,3.713099E6,2.850945E6,2.758356E6,1.9904448E7,1.3689408E7,1.7741175E5,1.4877112E5,5.001908E5,2.308082E6,3.899545E5,9.003415E5,1.557211E6,1.371185E5,5.402805E5,8.331858E6,2.516883E6,5.733828E6,2.9585525E6,1.575662E6,3.1047605E6,4.37382E6,2.817391E6,2.9204938E5,1.8072479E6,1.8026299E6,8.98536E5,6.700322E6,1.555448E5,0E0,1.773145E6,2.646587E6,5.326488E5,9.6545175E5,2.900068E6,1.5161056E7,7.8709515E6,1.6161856E7,0E0,0E0,0E0,0E0,0E0,0E0,0E0,0E0,0E0,0E0,0E0,0E0,0E0,0E0,0E0,0E0,0E0,0E0,0E0,0E0,0E0,0E0,0E0,0E0,0E0,0E0,0E0,0E0,0E0,0E0,0E0,0E0,0E0,0E0,0E0,0E0,0E0,0E0,0E0,0E0,0E0,0E0,0E0,0E0,0E0,0E0,0E0,0E0,0E0,0E0,0E0,0E0,0E0,0E0,0E0,0E0,0E0,0E0,0E0,0E0,0E0,0E0],"parents":[2147483647,0,0,1,1,2,2,3,3,4,4,5,5,6,6,7,7,8,8,9,9,10,10,11,11,12,12,13,13,14,14,15,15,16,16,17,17,18,18,19,19,20,20,21,21,22,22,23,23,24,24,25,25,26,26,27,27,28,28,29,29,30,30,31,31,32,32,33,33,34,34,35,35,36,36,37,37,38,38,39,39,40,40,41,41,42,42,43,43,44,44,45,45,46,46,47,47,48,48,49,49,50,50,51,51,52,52,53,53,55,55,56,56,57,57,58,58,59,59,60,60,61,61,62,62],"right_children":[2,4,6,8,10,12,14,16,18,20,22,24,26,28,30,32,34,36,38,40,42,44,46,48,50,52,54,56,58,60,62,64,66,68,70,72,74,76,78,80,82,84,86,88,90,92,94,96,98,100,102,104,106,108,-1,110,112,114,116,118,120,122,124,-1,-1,-1,-1,-1,-1,-1,-1,-1,-1,-1,-1,-1,-1,-1,-1,-1,-1,-1,-1,-1,-1,-1,-1,-1,-1,-1,-1,-1,-1,-1,-1,-1,-1,-1,-1,-1,-1,-1,-1,-1,-1,-1,-1,-1,-1,-1,-1,-1,-1,-1,-1,-1,-1,-1,-1,-1,-1,-1,-1,-1,-1],"split_conditions":[1.175E0,3.495E0,5E-1,6.5E0,5.5E0,1.5E0,5E-1,5E-1,5.5E0,5.5E0,4.5E0,3.5E0,4.9449997E0,6.15E1,3E0,5.5800003E1,6.055E1,3.75E-1,3.42E0,5E-1,2.5E0,6.5E0,3E0,8.145E0,4.4049997E0,6.9849997E0,5.65E1,6.125E1,7.185E0,5.755E1,6.005E1,6.15E-1,6.185E1,5.545E0,4.465E0,3.05E-1,1.5E0,5.55E1,6.6499996E-1,5.9300003E1,1.5E0,9.6500003E-1,5.925E1,4.1549997E0,6.775E0,5.5E0,6.24E1,8.155E0,2.5E0,4.1549997E0,6.05E1,1.285E0,7.625E0,1.9300001E0,3.5572275E2,1.195E0,6.365E1,3.5E0,8.065E0,7.5600004E0,1.705E0,5.715E1,6.935E0,-2.8788868E1,-8.81709E1,-2.1503086E1,-9.181733E0,-2.9272761E0,-1.2888915E1,7.622978E-2,7.5118566E0,-2.4282367E0,1.2078029E1,-1.8859353E0,3.9530582E1,-7.3345085E1,1.13169395E2,4.3608243E2,1.086033E2,-1.0764791E2,-4.687902E1,-5.59143E0,1.6580414E1,1.0254023E1,3.935618E1,-9.990208E1,8.351021E1,2.741617E1,2.0210208E2,1.0668135E2,-2.0863447E1,4.616964E1,1.6801917E2,2.3322255E2,-5.44334E1,-4.9263466E1,-2.4322644E2,2.2312932E2,1.6944874E1,1.3651044E2,-7.9802925E1,5.922278E1,-7.419254E1,-3.9228622E1,-1.388728E2,4.086069E1,-8.747115E1,-8.3772804E1,2.5792776E1,2.1046143E0,-2.1192729E2,-4.9704468E1,-1.7896269E2,5.2177834E1,-9.840615E1,1.9995955E2,-6.50855E1,-3.245978E2,-8.42104E1,3.826417E1,9.7197655E1,-1.4072807E2,8.529266E1,4.844999E1,1.09021835E2],"split_indices":[0,8,2,3,3,1,3,2,2,2,2,3,8,5,1,5,4,0,8,3,3,3,1,7,8,7,5,4,7,4,4,0,4,7,6,0,2,5,0,4,2,0,4,8,7,2,4,6,3,8,5,0,7,0,0,0,4,2,6,7,0,5,7,0,0,0,0,0,0,0,0,0,0,0,0,0,0,0,0,0,0,0,0,0,0,0,0,0,0,0,0,0,0,0,0,0,0,0,0,0,0,0,0,0,0,0,0,0,0,0,0,0,0,0,0,0,0,0,0,0,0,0,0,0,0],"split_type":[0,0,0,0,0,0,0,0,0,0,0,0,0,0,0,0,0,0,0,0,0,0,0,0,0,0,0,0,0,0,0,0,0,0,0,0,0,0,0,0,0,0,0,0,0,0,0,0,0,0,0,0,0,0,0,0,0,0,0,0,0,0,0,0,0,0,0,0,0,0,0,0,0,0,0,0,0,0,0,0,0,0,0,0,0,0,0,0,0,0,0,0,0,0,0,0,0,0,0,0,0,0,0,0,0,0,0,0,0,0,0,0,0,0,0,0,0,0,0,0,0,0,0,0,0],"sum_hessian":[4.0904E4,3.4415E4,6.489E3,2.0668E4,1.3747E4,7.66E2,5.723E3,1.9481E4,1.187E3,1.3139E4,6.08E2,3.69E2,3.97E2,1.4E2,5.583E3,4.83E2,1.8998E4,1.153E3,3.4E1,1.1533E4,1.606E3,4.78E2,1.3E2,2.71E2,9.8E1,3.86E2,1.1E1,1.22E2,1.8E1,3.751E3,1.832E3,1.26E2,3.57E2,3.025E3,1.5973E4,7.68E2,3.85E2,3.1E1,3E0,2E2,1.1333E4,1.073E3,5.33E2,3.35E2,1.43E2,8.5E1,4.5E1,2.68E2,3E0,3.3E1,6.5E1,1.25E2,2.61E2,3E0,8E0,2.9E1,9.3E1,1.1E1,7E0,2.1E1,3.73E3,5.8E1,1.774E3,1.22E2,4E0,1.76E2,1.81E2,2.47E3,5.55E2,6.044E3,9.929E3,2.44E2,5.24E2,5.5E1,3.3E2,4E0,2.7E1,2E0,1E0,1.4E1,1.86E2,1.816E3,9.517E3,5.62E2,5.11E2,1.5E1,5.18E2,3.27E2,8E0,1.34E2,9E0,5.7E1,2.8E1,4E1,5E0,2.62E2,6E0,2E0,1E0,3E0,3E1,5.5E1,1E1,1.17E2,8E0,2.18E2,4.3E1,1E0,2E0,4E0,2.5E1,7.6E1,1.7E1,2E0,9E0,6E0,1E0,1.3E1,8E0,3.284E3,4.46E2,3.7E1,2.1E1,6.03E2,1.171E3],"tree_param":{"num_deleted":"0","num_feature":"9","num_nodes":"125","size_leaf_vector":"0"}},{"base_weights":[3.5109344E1,1.1399293E1,7.624606E1,-6.155476E0,1.9791576E1,5.2901297E0,1.0365977E2,-2.992653E0,-8.594811E1,3.026489E0,3.4699966E1,-1.8237654E2,2.1045536E1,8.9536644E1,2.7233466E2,-2.1951674E1,5.5032387E0,-3.0379467E1,-1.4202466E2,-3.968661E1,7.8896537E0,2.3478136E1,7.843912E1,-1.6882362E2,-1.01057733E3,1.5054858E1,4.191089E2,7.9629456E1,2.628196E2,2.0153856E2,4.924872E2,-2.4042328E1,1.2591729E2,-1.30590725E1,1.6429697E1,1.5027191E1,-5.25958E1,-1.6311319E2,1.0736279E2,-4.085467E1,4.7307825E2,4.4226003E0,6.1971996E1,-2.2786291E1,2.8825949E1,6.3792255E1,2.4380078E2,-1.7828929E2,3.546835E2,-1.1876088E3,-1.5122583E2,1.878635E1,-8.665183E2,6.57296E2,-1.3347966E2,6.72655E1,2.247605E2,1.6705687E2,6.4699426E2,2.1883598E2,-2.6598184E2,5.2346277E2,-8.3264294E2,4.328758E2,-2.4403446E1,2.6088895E2,1.1644104E1,-8.1771E0,-5.8591408E1,-1.8339464E1,2.9427696E1,-7.439822E1,1.0720809E2,-3.142795E1,-1.5121045E2,-1.25715805E2,-3.323196E2,3.5482678E2,5.7171894E1,-3.363429E1,-9.54748E1,-4.982361E1,6.698741E0,1.2173321E2,-2.4403742E-1,-7.321086E1,4.5616817E-1,2.907953E1,-8.262135E2,1.25933464E2,4.826689E1,8.253712E1,4.2160654E2,-1.475808E2,-4.2684222E2,1.24960205E2,5.427534E2,1.6986874E1,1.7114458E3,3.9143246E2,-1.4738989E3,-4.243872E2,8.239476E2,8.505332E2,-3.096396E2,7.488325E1,-1.23929016E2,1.3620984E2,4.1291632E2,-3.6639993E2,1.8186548E2,7.5513495E2,1.6817369E2,2.0124368E2,6.5907227E2,1.2539746E2,-3.8166486E2,5.8567706E2,2.4629162E1,3.3046533E2,-1.2060364E3],"categories":[],"categories_nodes":[],"categories_segments":[],"categories_sizes":[],"default_left":[1,1,1,1,1,1,1,1,1,1,1,1,1,1,1,1,0,1,1,1,1,1,1,1,1,1,1,1,1,1,1,1,1,1,1,1,1,1,1,1,0,1,1,1,1,1,1,1,1,0,0,1,1,1,1,1,1,1,1,1,1,1,0,0,0,0,0,0,0,0,0,0,0,0,0,0,0,0,0,0,0,0,0,0,0,0,0,0,0,0,0,0,0,0,0,0,0,0,0,0,0,0,0,0,0,0,0,0,0,0,0,0,0,0,0,0,0,0,0,0,0],"id":13,"left_children":[1,3,5,7,9,11,13,15,17,19,21,23,25,27,29,31,33,35,37,39,41,43,45,47,49,51,53,55,57,59,61,63,65,67,69,71,73,75,77,79,-1,81,83,85,87,89,91,93,95,-1,-1,97,99,101,103,105,107,109,111,113,115,117,119,-1,-1,-1,-1,-1,-1,-1,-1,-1,-1,-1,-1,-1,-1,-1,-1,-1,-1,-1,-1,-1,-1,-1,-1,-1,-1,-1,-1,-1,-1,-1,-1,-1,-1,-1,-1,-1,-1,-1,-1,-1,-1,-1,-1,-1,-1,-1,-1,-1,-1,-1,-1,-1,-1,-1,-1,-1,-1],"loss_changes":[3.9895972E7,3.8231952E6,2.9091344E7,2.1181365E6,4.3880995E6,1.233059E7,2.567496E7,1.3007916E6,9.9283675E5,1.7171259E6,4.559472E6,3.454916E6,9.167512E6,1.7071008E7,1.2883836E7,7.755754E5,1.1313435E6,1.6421102E5,8.53727E5,5.25432E5,1.3912106E6,1.8307738E6,4.579039E6,1.643991E6,5.81064E5,1.248709E7,7.590045E6,1.6886276E7,1.9684732E7,5.169128E6,8.727284E6,4.172915E5,5.367896E5,4.589894E5,1.5872644E6,4.531151E5,2.227809E5,8.8842025E5,1.411796E5,3.2964412E5,0E0,8.61551E5,1.6620229E6,8.989506E5,1.4617805E6,1.676471E6,4.380938E6,2.333669E6,1.9140169E5,0E0,0E0,1.1472249E7,1.280181E7,7.560238E6,3.3835442E6,1.2652892E7,1.2256472E7,3.479328E6,5.413468E6,4.591676E6,1.0892064E6,6.13042E6,2.570038E6,0E0,0E0,0E0,0E0,0E0,0E0,0E0,0E0,0E0,0E0,0E0,0E0,0E0,0E0,0E0,0E0,0E0,0E0,0E0,0E0,0E0,0E0,0E0,0E0,0E0,0E0,0E0,0E0,0E0,0E0,0E0,0E0,0E0,0E0,0E0,0E0,0E0,0E0,0E0,0E0,0E0,0E0,0E0,0E0,0E0,0E0,0E0,0E0,0E0,0E0,0E0,0E0,0E0,0E0,0E0,0E0,0E0,0E0],"parents":[2147483647,0,0,1,1,2,2,3,3,4,4,5,5,6,6,7,7,8,8,9,9,10,10,11,11,12,12,13,13,14,14,15,15,16,16,17,17,18,18,19,19,20,20,21,21,22,22,23,23,24,24,25,25,26,26,27,27,28,28,29,29,30,30,31,31,32,32,33,33,34,34,35,35,36,36,37,37,38,38,39,39,41,41,42,42,43,43,44,44,45,45,46,46,47,47,48,48,51,51,52,52,53,53,54,54,55,55,56,56,57,57,58,58,59,59,60,60,61,61,62,62],"right_children":[2,4,6,8,10,12,14,16,18,20,22,24,26,28,30,32,34,36,38,40,42,44,46,48,50,52,54,56,58,60,62,64,66,68,70,72,74,76,78,80,-1,82,84,86,88,90,92,94,96,-1,-1,98,100,102,104,106,108,110,112,114,116,118,120,-1,-1,-1,-1,-1,-1,-1,-1,-1,-1,-1,-1,-1,-1,-1,-1,-1,-1,-1,-1,-1,-1,-1,-1,-1,-1,-1,-1,-1,-1,-1,-1,-1,-1,-1,-1,-1,-1,-1,-1,-1,-1,-1,-1,-1,-1,-1,-1,-1,-1,-1,-1,-1,-1,-1,-1,-1,-1],"split_conditions":[6.135E0,2.5E0,1.5E0,6.395E1,3.5E0,5E-1,5.5E0,1.5E0,5.585E0,5.495E1,5.3450003E0,8.035E0,8.075E0,5.5E0,1.195E0,9.05E-1,3E0,1.5E0,9.15E-1,3.915E0,5.875E0,2.585E0,5.5E0,6.505E1,2.5E0,8.055E0,2.0149999E0,1.615E0,7.075E0,4.165E0,7.7250004E0,5.605E1,3.8649998E0,6.025E0,4.625E0,6.8E-1,5.545E0,3.915E0,6.0699997E0,5.535E0,1.4192348E2,2.9500002E-1,6.0150003E0,4.5E0,5.825E0,6.25E-1,3E0,6.365E1,7.1099997E0,-3.5628265E2,-4.5367752E1,2.025E0,2.5E0,5.925E1,8.085E0,6.155E1,2.5E0,5.8699997E1,5.95E1,6.5E0,6.66E0,6.305E1,3E0,1.2986275E2,-7.321034E0,7.8266685E1,3.4932313E0,-2.4531302E0,-1.7577423E1,-5.5018396E0,8.828309E0,-2.2319466E1,3.216243E1,-9.428386E0,-4.5363136E1,-3.7714745E1,-9.9695885E1,1.0644804E2,1.715157E1,-1.0090287E1,-2.864244E1,-1.4947083E1,2.0096223E0,3.6519962E1,-7.321123E-2,-2.1963259E1,1.3685046E-1,8.72386E0,-2.4786406E2,3.778004E1,1.4480068E1,2.4761137E1,1.26481964E2,-4.427424E1,-1.2805267E2,3.7488064E1,1.6282603E2,5.096062E0,5.134338E2,1.1742974E2,-4.421697E2,-1.2731617E2,2.4718428E2,2.5515997E2,-9.289188E1,2.2464975E1,-3.7178707E1,4.0862953E1,1.238749E2,-1.0991998E2,5.4559647E1,2.265405E2,5.045211E1,6.0373108E1,1.977217E2,3.761924E1,-1.1449946E2,1.7570312E2,7.3887486E0,9.91396E1,-3.618109E2],"split_indices":[6,3,3,4,2,3,2,3,7,5,6,7,7,3,0,0,1,3,0,8,7,8,3,4,2,7,0,0,7,8,6,4,8,7,6,0,7,8,6,7,0,0,7,3,7,0,1,4,6,0,0,0,2,4,7,5,2,4,5,3,6,4,1,0,0,0,0,0,0,0,0,0,0,0,0,0,0,0,0,0,0,0,0,0,0,0,0,0,0,0,0,0,0,0,0,0,0,0,0,0,0,0,0,0,0,0,0,0,0,0,0,0,0,0,0,0,0,0,0,0,0],"split_type":[0,0,0,0,0,0,0,0,0,0,0,0,0,0,0,0,0,0,0,0,0,0,0,0,0,0,0,0,0,0,0,0,0,0,0,0,0,0,0,0,0,0,0,0,0,0,0,0,0,0,0,0,0,0,0,0,0,0,0,0,0,0,0,0,0,0,0,0,0,0,0,0,0,0,0,0,0,0,0,0,0,0,0,0,0,0,0,0,0,0,0,0,0,0,0,0,0,0,0,0,0,0,0,0,0,0,0,0,0,0,0,0,0,0,0,0,0,0,0,0,0],"sum_hessian":[4.0904E4,2.5949E4,1.4955E4,8.393E3,1.7556E4,4.168E3,1.0787E4,8.074E3,3.19E2,8.264E3,9.292E3,3.22E2,3.846E3,9.955E3,8.32E2,2.498E3,5.576E3,1.61E2,1.58E2,8.44E2,7.42E3,7.396E3,1.896E3,3.18E2,4E0,3.79E3,5.6E1,9.418E3,5.37E2,6.31E2,2.01E2,2.464E3,3.4E1,2.066E3,3.51E3,5.3E1,1.08E2,1.46E2,1.2E1,8.43E2,1E0,6.974E3,4.46E2,7.66E2,6.63E3,1.743E3,1.53E2,3.13E2,5E0,3E0,1E0,3.775E3,1.5E1,3.9E1,1.7E1,8.68E3,7.38E2,4.31E2,1.06E2,6.09E2,2.2E1,1.97E2,4E0,1E0,2.463E3,1.5E1,1.9E1,1.867E3,1.99E2,9.55E2,2.555E3,2.7E1,2.6E1,9E1,1.8E1,1.21E2,2.5E1,1E0,1.1E1,7.46E2,9.7E1,2.8E2,6.694E3,2.27E2,2.19E2,2.41E2,5.25E2,6.629E3,1E0,3.47E2,1.396E3,8.1E1,7.2E1,2.8E2,3.3E1,3E0,2E0,3.772E3,3E0,5E0,1E1,5E0,3.4E1,2E0,1.5E1,8.348E3,3.32E2,5.03E2,2.35E2,1.1E1,4.2E2,8.6E1,2E1,5.87E2,2.2E1,5E0,1.7E1,1.75E2,2.2E1,1E0,3E0],"tree_param":{"num_deleted":"0","num_feature":"9","num_nodes":"121","size_leaf_vector":"0"}},{"base_weights":[2.4595474E1,1.5763429E1,8.475866E1,1.5591745E1,2.0517102E3,-5.4877995E1,1.06497505E2,-6.5331665E1,1.8583838E1,-6.4675446E1,1.0989371E3,1.4973326E1,1.4720583E2,-3.798583E1,-1.2071422E2,7.454883E0,4.0005493E1,-5.5892166E1,-1.2761296E3,2.4535805E1,-5.8336224E2,1.7650629E2,-5.7962494E0,-5.246892E1,6.568869E1,-1.0265278E2,-4.1445078E2,5.364447E0,4.5362694E1,4.7776814E1,-8.341183E1,-5.1656555E2,-3.294763E1,1.1752044E1,4.021058E2,1.3134766E2,-1.6303152E3,1.2026053E2,2.3765622E2,1.10252884E2,-2.5443697E2,-3.6729076E1,-9.826005E1,4.5240673E1,2.203908E2,-2.0121504E2,-6.834196E1,-6.0067377E2,-2.8379718E2,1.507068E0,2.4709316E1,3.8301804E1,2.758655E2,-2.585103E1,6.3828E1,-1.4758958E2,-2.8229256E1,-6.876083E2,-1.1197031E2,-7.5429794E1,1.2983157E2,1.531688E1,-1.1747119E3,5.2590814E2,-1.5153777E2,-2.0415947E2,7.760924E2,-7.2083984E1,-2.0652263E3,1.2682263E2,-7.8683655E2,2.2160258E2,1.2219021E3,6.283415E1,6.448566E2,-3.2606113E2,1.1561328E3],"categories":[],"categories_nodes":[],"categories_segments":[],"categories_sizes":[],"default_left":[1,1,1,1,0,1,1,1,1,1,0,1,1,1,1,1,1,1,0,1,1,1,1,1,1,1,1,1,1,1,1,1,1,1,1,1,1,1,1,1,1,0,0,0,0,0,0,0,0,0,0,0,0,0,0,0,0,0,0,0,0,0,0,0,0,0,0,0,0,0,0,0,0,0,0,0,0],"id":14,"left_children":[1,3,5,7,-1,9,11,13,15,17,-1,19,21,23,25,27,29,31,-1,33,35,37,39,41,43,45,47,49,51,53,55,57,59,61,63,65,67,69,71,73,75,-1,-1,-1,-1,-1,-1,-1,-1,-1,-1,-1,-1,-1,-1,-1,-1,-1,-1,-1,-1,-1,-1,-1,-1,-1,-1,-1,-1,-1,-1,-1,-1,-1,-1,-1,-1],"loss_changes":[2.1734106E7,1.2436042E7,1.5899928E7,8.637517E6,0E0,8.0520145E6,1.6879376E7,1.921836E6,8.199969E6,7.387695E6,0E0,8.001627E6,1.4059816E7,1.2842499E6,2.185684E6,1.793679E6,1.1283182E7,7.350225E6,0E0,6.632076E6,1.6676025E7,9.023984E6,1.4599595E7,5.362291E5,3.221813E5,1.3288042E6,4.134675E5,1.60102E6,1.9148312E6,1.3077242E7,2.4642545E6,2.20671E6,4.60841E6,5.6475255E6,3.164101E6,3.186877E6,5.950358E6,8.272526E6,1.9638144E7,8.705312E6,1.6642943E7,0E0,0E0,0E0,0E0,0E0,0E0,0E0,0E0,0E0,0E0,0E0,0E0,0E0,0E0,0E0,0E0,0E0,0E0,0E0,0E0,0E0,0E0,0E0,0E0,0E0,0E0,0E0,0E0,0E0,0E0,0E0,0E0,0E0,0E0,0E0,0E0],"parents":[2147483647,0,0,1,1,2,2,3,3,5,5,6,6,7,7,8,8,9,9,11,11,12,12,13,13,14,14,15,15,16,16,17,17,19,19,20,20,21,21,22,22,23,23,24,24,25,25,26,26,27,27,28,28,29,29,30,30,31,31,32,32,33,33,34,34,35,35,36,36,37,37,38,38,39,39,40,40],"right_children":[2,4,6,8,-1,10,12,14,16,18,-1,20,22,24,26,28,30,32,-1,34,36,38,40,42,44,46,48,50,52,54,56,58,60,62,64,66,68,70,72,74,76,-1,-1,-1,-1,-1,-1,-1,-1,-1,-1,-1,-1,-1,-1,-1,-1,-1,-1,-1,-1,-1,-1,-1,-1,-1,-1,-1,-1,-1,-1,-1,-1,-1,-1,-1,-1],"split_conditions":[6.875E0,1.665E0,6.005E1,5E-1,6.1551306E2,8.145E0,1.5E0,9.8E-1,5.815E0,4.865E0,3.2968115E2,4.995E0,6.285E1,8.9E-1,4.5E0,6.5E0,6.375E1,5.775E1,-3.828389E2,8.075E0,5E-1,6.175E1,1.525E0,5.725E0,3.9250002E0,4.005E0,1.0550001E0,5.5E0,5.5E0,6.045E1,5.71E1,4.325E0,4.5E0,8.17E0,8.145E0,3.5E0,7.975E0,4.9849997E0,8.025E0,4.5E0,7.895E0,-1.10187235E1,-2.9478016E1,1.3572203E1,6.611724E1,-6.0364513E1,-2.0502588E1,-1.8020213E2,-8.513916E1,4.5212042E-1,7.412795E0,1.1490541E1,8.275966E1,-7.7553096E0,1.9148401E1,-4.427688E1,-8.468777E0,-2.0628249E2,-3.3591095E1,-2.2628939E1,3.8949474E1,4.595064E0,-3.5241357E2,1.5777245E2,-4.546133E1,-6.1247845E1,2.3282773E2,-2.1625196E1,-6.1956793E2,3.804679E1,-2.3605098E2,6.648078E1,3.6657065E2,1.8850245E1,1.93457E2,-9.7818344E1,3.4683984E2],"split_indices":[7,0,4,2,0,7,2,0,7,8,0,8,4,0,3,3,4,4,0,7,2,4,0,7,8,8,0,2,2,4,5,8,2,6,7,3,6,8,7,3,7,0,0,0,0,0,0,0,0,0,0,0,0,0,0,0,0,0,0,0,0,0,0,0,0,0,0,0,0,0,0,0,0,0,0,0,0],"split_type":[0,0,0,0,0,0,0,0,0,0,0,0,0,0,0,0,0,0,0,0,0,0,0,0,0,0,0,0,0,0,0,0,0,0,0,0,0,0,0,0,0,0,0,0,0,0,0,0,0,0,0,0,0,0,0,0,0,0,0,0,0,0,0,0,0,0,0,0,0,0,0,0,0,0,0,0,0],"sum_hessian":[4.0904E4,3.5669E4,5.235E3,3.5667E4,2E0,7.05E2,4.53E3,1.271E3,3.4396E4,7E2,5E0,1.395E3,3.135E3,8.52E2,4.19E2,2.2637E4,1.1759E4,6.96E2,4E0,1.374E3,2.1E1,2.631E3,5.04E2,7.48E2,1.04E2,3.96E2,2.3E1,2.1455E4,1.182E3,1.1063E4,6.96E2,3.2E1,6.64E2,1.33E3,4.4E1,1.3E1,8E0,1.372E3,1.259E3,3.44E2,1.6E2,5.58E2,1.9E2,9.3E1,1.1E1,1.01E2,2.95E2,8E0,1.5E1,1.7889E4,3.566E3,1.148E3,3.4E1,1.98E3,9.083E3,3.21E2,3.75E2,2.2E1,1E1,5.27E2,1.37E2,1.327E3,3E0,3.6E1,8E0,9E0,4E0,2E0,6E0,1.363E3,9E0,1.24E3,1.9E1,3.17E2,2.7E1,1.53E2,7E0],"tree_param":{"num_deleted":"0","num_feature":"9","num_nodes":"77","size_leaf_vector":"0"}},{"base_weights":[1.7218864E1,1.4084904E1,1.181276E2,-3.357158E1,1.9445745E1,2.375845E2,5.4468365E1,-2.5827036E1,-5.5201807E2,-8.687895E0,2.8820095E1,1.4836124E1,3.063391E2,1.4565915E0,3.2473706E2,-2.4679678E1,-9.270751E2,-1.4496636E3,-4.0330304E2,-6.026343E0,-3.9486313E2,1.0779658E1,5.7292515E1,3.8684822E1,-1.1969412E3,1.3375307E2,3.8398364E2,2.077126E2,-6.9075195E1,-3.2729285E2,4.2397012E2,-1.9888813E1,-1.6310112E2,-1.8372537E3,-1.9126204E2,-4.796735E2,1.5617453E2,-6.583975E0,1.6413685E3,-8.861423E2,-1.6860344E2,-2.5661709E1,1.4919652E1,3.6308468E1,1.21403534E2,2.0068803E2,-7.5362175E1,2.0880644E2,-4.0190924E2,-8.2081476E2,3.984698E2,3.0486786E2,-3.7575497E2,-2.8143567E2,-6.117535E0,6.1478603E1,-8.20942E2,2.0804501E2,6.9085565E2,-2.6446714E1,3.123515E2,-5.781378E2,-8.382548E1,7.472583E1,-3.616189E2,-3.2791537E2,-9.932112E2,4.3353143E2,-3.5814517E2,-1.0909023E1,1.1847014E2,-2.7549683E2,